{"learner":{"attributes":{"scikit_learn":"{\"_estimator_type\": \"regressor\"}"},"feature_names":["temperature_2m_mean","precipitation_sum","wind_speed_10m_max","wind_direction_10m_dominant"],"feature_types":["float","float","float","float"],"gradient_booster":{"model":{"gbtree_model_param":{"num_parallel_tree":"1","num_trees":"100"},"iteration_indptr":[0,1,2,3,4,5,6,7,8,9,10,11,12,13,14,15,16,17,18,19,20,21,22,23,24,25,26,27,28,29,30,31,32,33,34,35,36,37,38,39,40,41,42,43,44,45,46,47,48,49,50,51,52,53,54,55,56,57,58,59,60,61,62,63,64,65,66,67,68,69,70,71,72,73,74,75,76,77,78,79,80,81,82,83,84,85,86,87,88,89,90,91,92,93,94,95,96,97,98,99,100],"tree_info":[0,0,0,0,0,0,0,0,0,0,0,0,0,0,0,0,0,0,0,0,0,0,0,0,0,0,0,0,0,0,0,0,0,0,0,0,0,0,0,0,0,0,0,0,0,0,0,0,0,0,0,0,0,0,0,0,0,0,0,0,0,0,0,0,0,0,0,0,0,0,0,0,0,0,0,0,0,0,0,0,0,0,0,0,0,0,0,0,0,0,0,0,0,0,0,0,0,0,0,0],"trees":[{"base_weights":[6.5934796E-7,4.746401E0,-4.5321465E0,-2.4966867E0,6.211432E0,2.5806856E0,-5.784695E0,1.7853873E0,-5.3906054E0,7.9967923E0,2.8332305E0,8.6462145E0,7.356652E-1,-2.0226774E0,-7.057664E0,8.111771E-1,8.357805E0,-4.3393545E0,-1.1927988E1,4.8184295E0,9.612826E0,6.003967E0,3.4965965E-1,1.2065896E1,3.3388367E0,4.770882E0,-7.63319E-1,-1.1140589E0,-8.085334E0,-5.330941E0,-8.699138E0,3.1966221E0,-5.0144973E0,4.4361708E-1,1.2549131E1,-2.066049E0,-6.737409E0,-8.365437E0,-3.9482682E0,6.8686686E0,-4.096831E-1,1.0630631E1,5.8402066E0,8.305945E0,1.9734621E0,1.8875087E0,-3.6206708E0,1.0407251E1,1.8986662E1,-2.5403554E0,8.499113E0,3.7881434E0,1.5320631E1,-1.3844492E0,9.806833E0,1.57481E0,-2.4281616E0,-7.133377E-1,-9.0505495E0,-5.512764E0,1.2332506E1,-7.081404E0,-1.0333791E1,2.1469765E0,9.1567275E-4,-2.3762681E0,-4.451529E-1,-1.0814828E0,1.9216657E0,4.143491E0,-7.6888967E-1,8.9121073E-1,-9.5269984E-1,-2.2556853E0,1.2794433E0,1.0311104E0,-2.9252539E0,1.978852E0,1.0774815E1,3.4023666E-1,-2.1132493E0,2.4763389E0,3.8896682E0,1.4209324E0,5.533332E0,-1.3352606E0,2.7705343E0,2.1661517E-1,4.0153694E0,9.9164534E-1,-1.7284314E-1,-6.9924545E-1,-2.6709192E0,1.3647394E0,3.7861574E0,6.8294435E0,7.748139E-1,-1.5025777E-1,-1.7895252E0,4.691943E0,1.1434908E0,1.545879E0,-5.9791803E-1,6.449777E0,-2.5186159E-2,3.8775675E-2,-1.8832066E0,1.2330852E0,5.4297767E0,1.2054152E0,-9.2696947E-1,-8.6989444E-1,2.252082E0,2.3097768E0,-2.2814827E0,-1.5179099E0,-3.0543604E0,-1.1376659E0,-1.9856589E0,1.5466657E0,4.5185175E0,-1.8187926E0,-2.8286104E0,-2.661573E0,-3.83448E0],"categories":[],"categories_nodes":[],"categories_segments":[],"categories_sizes":[],"default_left":[0,0,0,0,0,0,0,0,0,0,0,0,0,0,0,0,0,0,0,0,0,0,0,0,0,0,0,0,0,0,0,0,0,0,0,0,0,0,0,0,0,0,0,0,0,0,0,0,0,0,0,0,0,0,0,0,0,0,0,0,0,0,0,0,0,0,0,0,0,0,0,0,0,0,0,0,0,0,0,0,0,0,0,0,0,0,0,0,0,0,0,0,0,0,0,0,0,0,0,0,0,0,0,0,0,0,0,0,0,0,0,0,0,0,0,0,0,0,0,0,0,0,0,0,0],"id":0,"left_children":[1,3,5,7,9,11,13,15,17,19,21,23,25,27,29,31,33,35,37,39,41,43,45,47,49,51,53,55,57,59,61,63,65,67,69,71,73,75,-1,77,79,81,83,85,87,89,91,93,95,97,99,101,103,105,107,109,111,113,115,117,119,121,123,-1,-1,-1,-1,-1,-1,-1,-1,-1,-1,-1,-1,-1,-1,-1,-1,-1,-1,-1,-1,-1,-1,-1,-1,-1,-1,-1,-1,-1,-1,-1,-1,-1,-1,-1,-1,-1,-1,-1,-1,-1,-1,-1,-1,-1,-1,-1,-1,-1,-1,-1,-1,-1,-1,-1,-1,-1,-1,-1,-1,-1,-1],"loss_changes":[1.15516125E5,2.784907E4,2.4488426E4,5.4868765E3,1.3137664E4,4.604341E3,1.1172672E4,1.1393423E3,1.762562E3,7.283242E3,5.951209E3,1.7020703E3,1.9210883E3,3.252109E3,4.8996016E3,2.1978313E3,7.5736487E2,1.2344761E3,4.802539E1,5.180034E3,3.5665156E3,3.0639512E3,2.6017861E3,4.6818848E2,1.204783E3,8.3358093E2,1.5367595E3,1.827084E3,5.414424E2,2.8074922E3,2.2882969E3,1.4163778E3,4.6027478E2,2.4032686E2,3.215852E2,6.7450903E2,9.86522E2,2.2972913E2,0E0,2.5096895E3,1.4111904E3,4.0152812E3,2.7367993E3,2.5421387E3,1.7324938E3,1.0743779E3,7.9005615E2,5.7790283E2,5.609702E2,1.2972202E2,6.4329565E2,6.4147876E2,6.680591E2,1.6302191E3,5.397035E2,1.9499062E3,1.6472073E3,6.3831506E2,2.5531982E2,1.5830137E3,9.863574E1,1.02372266E3,1.4682617E3,0E0,0E0,0E0,0E0,0E0,0E0,0E0,0E0,0E0,0E0,0E0,0E0,0E0,0E0,0E0,0E0,0E0,0E0,0E0,0E0,0E0,0E0,0E0,0E0,0E0,0E0,0E0,0E0,0E0,0E0,0E0,0E0,0E0,0E0,0E0,0E0,0E0,0E0,0E0,0E0,0E0,0E0,0E0,0E0,0E0,0E0,0E0,0E0,0E0,0E0,0E0,0E0,0E0,0E0,0E0,0E0,0E0,0E0,0E0,0E0,0E0,0E0],"parents":[2147483647,0,0,1,1,2,2,3,3,4,4,5,5,6,6,7,7,8,8,9,9,10,10,11,11,12,12,13,13,14,14,15,15,16,16,17,17,18,18,19,19,20,20,21,21,22,22,23,23,24,24,25,25,26,26,27,27,28,28,29,29,30,30,31,31,32,32,33,33,34,34,35,35,36,36,37,37,39,39,40,40,41,41,42,42,43,43,44,44,45,45,46,46,47,47,48,48,49,49,50,50,51,51,52,52,53,53,54,54,55,55,56,56,57,57,58,58,59,59,60,60,61,61,62,62],"right_children":[2,4,6,8,10,12,14,16,18,20,22,24,26,28,30,32,34,36,38,40,42,44,46,48,50,52,54,56,58,60,62,64,66,68,70,72,74,76,-1,78,80,82,84,86,88,90,92,94,96,98,100,102,104,106,108,110,112,114,116,118,120,122,124,-1,-1,-1,-1,-1,-1,-1,-1,-1,-1,-1,-1,-1,-1,-1,-1,-1,-1,-1,-1,-1,-1,-1,-1,-1,-1,-1,-1,-1,-1,-1,-1,-1,-1,-1,-1,-1,-1,-1,-1,-1,-1,-1,-1,-1,-1,-1,-1,-1,-1,-1,-1,-1,-1,-1,-1,-1,-1,-1,-1,-1,-1],"split_conditions":[2.1742273E2,4.5192593E1,1.3661038E1,1.5844089E1,1.8130618E2,1.0799999E1,2.419909E2,1.698942E1,2.66327E1,9.728057E1,3E-1,8.618584E0,2.0685833E0,2.9793125E1,1.9966211E1,8.824834E0,1.3217443E1,4.6769166E0,-2.8558332E-1,1.872346E1,3.9000003E0,1.5081084E1,2.5223133E1,6.8665004E0,1.6904001E1,1.7998334E0,2.1083172E1,1E-1,2.549833E0,2.1416498E1,2.7801056E2,1.2661564E1,1.4508166E1,4E-1,6E-1,1.758481E1,1.8595669E1,2.707669E1,-3.9482682E0,1.8671474E1,2.4967499E1,1.5484185E1,1.9712336E1,1.0644379E1,2.2697752E1,1.2420666E1,2.122687E2,2.6262418E2,1.0390226E1,9.984729E0,1.7551918E1,3.3391724E2,1E-1,3.099759E2,1.2538134E1,1.3206082E1,1.8887335E1,1.2000002E0,3E-1,2.770048E2,2.2203997E1,1.3000002E0,5.345667E0,2.1469765E0,9.1567275E-4,-2.3762681E0,-4.451529E-1,-1.0814828E0,1.9216657E0,4.143491E0,-7.6888967E-1,8.9121073E-1,-9.5269984E-1,-2.2556853E0,1.2794433E0,1.0311104E0,-2.9252539E0,1.978852E0,1.0774815E1,3.4023666E-1,-2.1132493E0,2.4763389E0,3.8896682E0,1.4209324E0,5.533332E0,-1.3352606E0,2.7705343E0,2.1661517E-1,4.0153694E0,9.9164534E-1,-1.7284314E-1,-6.9924545E-1,-2.6709192E0,1.3647394E0,3.7861574E0,6.8294435E0,7.748139E-1,-1.5025777E-1,-1.7895252E0,4.691943E0,1.1434908E0,1.545879E0,-5.9791803E-1,6.449777E0,-2.5186159E-2,3.8775675E-2,-1.8832066E0,1.2330852E0,5.4297767E0,1.2054152E0,-9.2696947E-1,-8.6989444E-1,2.252082E0,2.3097768E0,-2.2814827E0,-1.5179099E0,-3.0543604E0,-1.1376659E0,-1.9856589E0,1.5466657E0,4.5185175E0,-1.8187926E0,-2.8286104E0,-2.661573E0,-3.83448E0],"split_indices":[3,3,2,2,3,2,3,0,2,3,1,0,0,2,2,0,2,0,0,2,1,0,2,0,0,0,0,1,0,0,3,2,0,1,1,2,0,2,0,2,2,2,0,2,0,0,3,3,2,2,0,3,1,3,2,0,0,1,1,3,0,1,0,0,0,0,0,0,0,0,0,0,0,0,0,0,0,0,0,0,0,0,0,0,0,0,0,0,0,0,0,0,0,0,0,0,0,0,0,0,0,0,0,0,0,0,0,0,0,0,0,0,0,0,0,0,0,0,0,0,0,0,0,0,0],"split_type":[0,0,0,0,0,0,0,0,0,0,0,0,0,0,0,0,0,0,0,0,0,0,0,0,0,0,0,0,0,0,0,0,0,0,0,0,0,0,0,0,0,0,0,0,0,0,0,0,0,0,0,0,0,0,0,0,0,0,0,0,0,0,0,0,0,0,0,0,0,0,0,0,0,0,0,0,0,0,0,0,0,0,0,0,0,0,0,0,0,0,0,0,0,0,0,0,0,0,0,0,0,0,0,0,0,0,0,0,0,0,0,0,0,0,0,0,0,0,0,0,0,0,0,0,0],"sum_hessian":[5.368E3,2.622E3,2.746E3,4.41E2,2.181E3,4.11E2,2.335E3,1.78E2,2.63E2,1.426E3,7.55E2,9.5E1,3.16E2,5.91E2,1.744E3,1.56E2,2.2E1,2.28E2,3.5E1,4.82E2,9.44E2,3.31E2,4.24E2,5.7E1,3.8E1,8.5E1,2.31E2,5.15E2,7.6E1,8.52E2,8.92E2,1.11E2,4.5E1,8E0,1.4E1,1.18E2,1.1E2,1.1E1,2.4E1,3.46E2,1.36E2,7.42E2,2.02E2,2.1E2,1.21E2,3.06E2,1.18E2,4.8E1,9E0,1.8E1,2E1,7.9E1,6E0,2.19E2,1.2E1,1.69E2,3.46E2,9E0,6.7E1,8.44E2,8E0,4.51E2,4.41E2,4.9E1,6.2E1,2.4E1,2.1E1,5E0,3E0,1.3E1,1E0,2.1E1,9.7E1,1.03E2,7E0,1E0,1E1,3.44E2,2E0,1.11E2,2.5E1,3.7E2,3.72E2,1.87E2,1.5E1,1.4E1,1.96E2,1.1E2,1.1E1,1.94E2,1.12E2,9.6E1,2.2E1,1.4E1,3.4E1,7E0,2E0,1.2E1,6E0,7E0,1.3E1,6.4E1,1.5E1,4E0,2E0,1.68E2,5.1E1,8E0,4E0,1.11E2,5.8E1,3.31E2,1.5E1,4E0,5E0,1.6E1,5.1E1,3.32E2,5.12E2,3E0,5E0,3.17E2,1.34E2,2.79E2,1.62E2],"tree_param":{"num_deleted":"0","num_feature":"4","num_nodes":"125","size_leaf_vector":"1"}},{"base_weights":[7.7923522E-3,3.33166E0,-3.1660383E0,-1.7552345E0,4.3605676E0,7.23317E-2,-4.6848207E0,1.1738154E0,-3.8682618E0,5.2762246E0,7.6442325E-1,6.2257957E0,-6.822084E-1,-3.4044154E0,-6.6354337E0,-1.4163622E0,2.3585548E0,-3.1701052E0,-9.045311E0,6.3119617E0,2.653138E0,2.907937E0,-1.2068392E0,8.666043E0,2.4370742E0,-9.497366E-1,1.1428164E1,-1.7929204E0,-4.280363E0,-6.025121E0,-9.2777195E0,-1.9342369E0,2.6686132E0,5.0705786E0,7.7533925E-1,-1.6598525E0,-4.8327947E0,-2.8733761E0,-5.318554E0,4.139457E0,7.3763447E0,4.4782577E0,-6.993845E-1,4.297036E0,7.655641E-1,-1.5385873E0,1.4162245E1,7.3901963E0,1.4051089E1,-1.8803428E0,6.2272577E0,1.1536896E0,-1.7658069E0,7.1855884E0,6.051968E0,2.6320575E-2,-2.751247E0,-4.58516E0,1.568798E0,-4.8776617E0,-7.4171004E0,-7.9981055E0,-1.1154879E1,4.931068E-2,-1.5131011E0,7.2450036E-1,2.473031E0,-2.2062923E-1,1.9785221E0,-5.841723E-1,4.924015E0,-1.8468888E0,5.072339E-1,-6.3783383E-1,-1.914974E0,8.533158E-1,2.7715993E0,2.8676534E0,1.5984066E0,-1.4573818E-1,1.7384307E0,-3.933035E-1,2.85707E0,1.6671598E0,-1.3410653E-1,-1.3621541E0,6.776539E-1,-1.4751764E-1,-1.2640463E0,5.09644E0,4.28805E-1,2.9713237E0,1.1563102E0,5.1158113E0,4.0892527E-1,-1.0204712E-1,-1.8374494E0,2.5738254E0,-9.04661E-1,2.1787887E0,9.349726E-2,-1.8547188E-1,-1.3312306E0,2.5942917E0,-1.5538526E0,4.650447E0,-1.287075E-1,-5.4234284E-1,-1.3012278E0,-1.0059263E0,-1.7508414E0,1.9082448E0,-4.8739195E-1,-1.6526382E0,5.104308E-1,-1.63922E0,-2.5475578E0,-2.5706897E0,2.8391066E-1,-3.4921956E0,-1.6228627E0],"categories":[],"categories_nodes":[],"categories_segments":[],"categories_sizes":[],"default_left":[0,0,0,0,0,0,0,0,0,0,0,0,0,0,0,0,0,0,0,0,0,0,0,0,0,0,0,0,0,0,0,0,0,0,0,0,0,0,0,0,0,0,0,0,0,0,0,0,0,0,0,0,0,0,0,0,0,0,0,0,0,0,0,0,0,0,0,0,0,0,0,0,0,0,0,0,0,0,0,0,0,0,0,0,0,0,0,0,0,0,0,0,0,0,0,0,0,0,0,0,0,0,0,0,0,0,0,0,0,0,0,0,0,0,0,0,0,0,0,0,0],"id":1,"left_children":[1,3,5,7,9,11,13,15,17,19,21,23,25,27,29,31,33,35,37,39,41,43,45,47,49,51,53,55,57,59,61,63,-1,65,67,69,71,-1,73,75,77,79,81,83,85,87,89,91,93,95,97,99,101,103,-1,105,107,109,111,113,115,117,119,-1,-1,-1,-1,-1,-1,-1,-1,-1,-1,-1,-1,-1,-1,-1,-1,-1,-1,-1,-1,-1,-1,-1,-1,-1,-1,-1,-1,-1,-1,-1,-1,-1,-1,-1,-1,-1,-1,-1,-1,-1,-1,-1,-1,-1,-1,-1,-1,-1,-1,-1,-1,-1,-1,-1,-1,-1,-1],"loss_changes":[5.6650246E4,1.3736287E4,1.3511123E4,2.7401504E3,7.1809336E3,4.0808328E3,4.647879E3,5.741161E2,9.002246E2,4.7078164E3,1.8795996E3,8.664402E2,2.5476685E3,1.5888271E3,1.1374395E3,3.3227686E2,5.456646E2,5.6450464E2,8.606445E0,2.8506875E3,3.025797E3,6.3059143E2,1.2046802E3,2.9464844E2,6.498976E2,1.3186262E3,4.8577026E2,6.9744324E2,1.312207E3,9.285547E2,2.3986035E2,3.7278107E2,0E0,3.7610327E2,7.258171E2,6.604397E2,9.428767E2,0E0,6.8223114E0,2.694503E3,3.6819062E3,2.0940884E3,1.1066967E3,7.736831E2,6.8375134E2,6.3638556E2,1.5562665E2,3.9742676E2,3.5760083E2,1.22125305E2,4.824226E2,1.1036799E3,1.6926846E3,2.7980963E2,0E0,9.861209E2,3.8423157E2,1.0531719E3,5.765454E2,1.3962339E3,5.224404E2,4.4212256E2,8.494922E1,0E0,0E0,0E0,0E0,0E0,0E0,0E0,0E0,0E0,0E0,0E0,0E0,0E0,0E0,0E0,0E0,0E0,0E0,0E0,0E0,0E0,0E0,0E0,0E0,0E0,0E0,0E0,0E0,0E0,0E0,0E0,0E0,0E0,0E0,0E0,0E0,0E0,0E0,0E0,0E0,0E0,0E0,0E0,0E0,0E0,0E0,0E0,0E0,0E0,0E0,0E0,0E0,0E0,0E0,0E0,0E0,0E0,0E0],"parents":[2147483647,0,0,1,1,2,2,3,3,4,4,5,5,6,6,7,7,8,8,9,9,10,10,11,11,12,12,13,13,14,14,15,15,16,16,17,17,18,18,19,19,20,20,21,21,22,22,23,23,24,24,25,25,26,26,27,27,28,28,29,29,30,30,31,31,33,33,34,34,35,35,36,36,38,38,39,39,40,40,41,41,42,42,43,43,44,44,45,45,46,46,47,47,48,48,49,49,50,50,51,51,52,52,53,53,55,55,56,56,57,57,58,58,59,59,60,60,61,61,62,62],"right_children":[2,4,6,8,10,12,14,16,18,20,22,24,26,28,30,32,34,36,38,40,42,44,46,48,50,52,54,56,58,60,62,64,-1,66,68,70,72,-1,74,76,78,80,82,84,86,88,90,92,94,96,98,100,102,104,-1,106,108,110,112,114,116,118,120,-1,-1,-1,-1,-1,-1,-1,-1,-1,-1,-1,-1,-1,-1,-1,-1,-1,-1,-1,-1,-1,-1,-1,-1,-1,-1,-1,-1,-1,-1,-1,-1,-1,-1,-1,-1,-1,-1,-1,-1,-1,-1,-1,-1,-1,-1,-1,-1,-1,-1,-1,-1,-1,-1,-1,-1,-1,-1],"split_conditions":[2.1742273E2,4.5192593E1,1.6279802E1,1.6215992E1,1.9883055E2,1.0799999E1,2.770048E2,1.5694235E1,2.7952787E1,2.2E0,1.8345877E1,8.618584E0,2.1812334E1,1E-1,2.7792374E1,2.0404001E1,1.7998334E0,4.6769166E0,2.3794825E1,1.02207306E2,1.6614946E2,1.39019165E1,2.1416498E1,6.8665004E0,1.6904001E1,2.1269166E0,4E-1,2.419909E2,1.798525E1,5.1040006E0,4.8956666E0,8.824834E0,2.6686132E0,-3.835E-1,1.698942E1,1.73E1,1.5785248E1,-2.8733761E0,2.9354904E1,1.7064417E1,9.595666E0,8.036055E1,1.9131086E1,1.4000002E0,1.6303999E1,3.6999998E0,2.3439415E1,-3.835E-1,1E-1,2.988251E2,2.7801056E2,1.191812E1,2.9783173E2,3E-1,6.051968E0,-3.835E-1,9.124833E0,2.4345381E2,1.9966211E1,4.3144164E0,3.0026645E2,4.5477495E0,1.5333165E1,4.931068E-2,-1.5131011E0,7.2450036E-1,2.473031E0,-2.2062923E-1,1.9785221E0,-5.841723E-1,4.924015E0,-1.8468888E0,5.072339E-1,-6.3783383E-1,-1.914974E0,8.533158E-1,2.7715993E0,2.8676534E0,1.5984066E0,-1.4573818E-1,1.7384307E0,-3.933035E-1,2.85707E0,1.6671598E0,-1.3410653E-1,-1.3621541E0,6.776539E-1,-1.4751764E-1,-1.2640463E0,5.09644E0,4.28805E-1,2.9713237E0,1.1563102E0,5.1158113E0,4.0892527E-1,-1.0204712E-1,-1.8374494E0,2.5738254E0,-9.04661E-1,2.1787887E0,9.349726E-2,-1.8547188E-1,-1.3312306E0,2.5942917E0,-1.5538526E0,4.650447E0,-1.287075E-1,-5.4234284E-1,-1.3012278E0,-1.0059263E0,-1.7508414E0,1.9082448E0,-4.8739195E-1,-1.6526382E0,5.104308E-1,-1.63922E0,-2.5475578E0,-2.5706897E0,2.8391066E-1,-3.4921956E0,-1.6228627E0],"split_indices":[3,3,2,2,3,2,3,3,2,1,2,0,0,1,2,0,0,0,3,3,3,0,0,0,0,0,1,3,0,0,0,0,0,0,0,1,0,0,2,0,0,3,0,1,0,1,0,0,1,3,3,2,3,1,0,0,0,3,2,0,3,0,0,0,0,0,0,0,0,0,0,0,0,0,0,0,0,0,0,0,0,0,0,0,0,0,0,0,0,0,0,0,0,0,0,0,0,0,0,0,0,0,0,0,0,0,0,0,0,0,0,0,0,0,0,0,0,0,0,0,0],"split_type":[0,0,0,0,0,0,0,0,0,0,0,0,0,0,0,0,0,0,0,0,0,0,0,0,0,0,0,0,0,0,0,0,0,0,0,0,0,0,0,0,0,0,0,0,0,0,0,0,0,0,0,0,0,0,0,0,0,0,0,0,0,0,0,0,0,0,0,0,0,0,0,0,0,0,0,0,0,0,0,0,0,0,0,0,0,0,0,0,0,0,0,0,0,0,0,0,0,0,0,0,0,0,0,0,0,0,0,0,0,0,0,0,0,0,0,0,0,0,0,0,0],"sum_hessian":[5.368E3,2.622E3,2.746E3,4.41E2,2.181E3,8.77E2,1.869E3,1.85E2,2.56E2,1.738E3,4.43E2,9.5E1,7.82E2,1.13E3,7.39E2,5.8E1,1.27E2,2.27E2,2.9E1,1.245E3,4.93E2,2.12E2,2.31E2,5.7E1,3.8E1,7.66E2,1.6E1,3.99E2,7.31E2,6.03E2,1.36E2,5.6E1,2E0,4.6E1,8.1E1,1.2E2,1.07E2,2.4E1,5E0,4.11E2,8.34E2,3.19E2,1.74E2,1.28E2,8.4E1,2.27E2,4E0,4.8E1,9E0,1.8E1,2E1,2.14E2,5.52E2,1.2E1,4E0,1.38E2,2.61E2,6.95E2,3.6E1,3.33E2,2.7E2,8.4E1,5.2E1,3.4E1,2.2E1,2.6E1,2E1,6.5E1,1.6E1,1.19E2,1E0,8.9E1,1.8E1,2E0,3E0,3.29E2,8.2E1,4.02E2,4.32E2,6.7E1,2.52E2,1.65E2,9E0,1.01E2,2.7E1,1.8E1,6.6E1,1.64E2,6.3E1,3E0,1E0,2.7E1,2.1E1,7E0,2E0,1.4E1,4E0,1.6E1,4E0,2.5E1,1.89E2,3.87E2,1.65E2,1.1E1,1E0,3E0,1.35E2,1.65E2,9.6E1,3.52E2,3.43E2,1.4E1,2.2E1,3.04E2,2.9E1,9.8E1,1.72E2,7.9E1,5E0,4.7E1,5E0],"tree_param":{"num_deleted":"0","num_feature":"4","num_nodes":"121","size_leaf_vector":"1"}},{"base_weights":[1.042508E-2,2.230966E0,-2.3500233E0,-1.0633597E0,2.9280863E0,1.8089399E0,-3.007604E0,3.0120978E-1,-3.5403764E0,3.7270095E0,2.4421443E-1,3.6986432E0,-3.762545E-1,-1.0818537E0,-3.554999E0,1.857883E0,-7.028322E-1,-2.6791773E0,-5.9113345E0,4.760876E0,2.1434207E0,1.9103721E0,-1.1763996E0,3.4169073E0,4.8046722E0,-9.514065E-1,4.5359097E0,1.2690146E0,-2.4709609E0,-2.328925E0,-4.4722257E0,3.269771E0,-4.1631234E-1,-1.5364381E0,3.4871607E0,-3.018431E0,1.2462529E1,-6.2470984E0,-9.079814E-1,3.737679E0,6.726506E0,1.5711998E0,9.210945E0,1.6500237E0,4.176265E0,-1.6776638E0,4.323866E0,6.578845E0,2.2549374E0,-3.6230168E0,1.2506043E0,3.7387924E0,-2.0501761E0,-6.5875955E0,-1.9640694E0,-1.5394498E0,-3.5440478E0,-4.7338057E0,-5.726576E-1,7.859883E-1,5.4625506E0,-1.8735489E0,4.456132E-1,9.4380334E-2,-1.176252E0,-1.5026774E0,1.4639332E0,-5.296273E-1,-1.5703834E0,5.0116415E0,5.964967E-1,-1.1986222E0,-2.1043785E0,1.3464967E0,-1.260857E0,1.813565E0,7.952331E-1,8.734182E-1,2.5451615E0,6.76986E-1,-4.3560907E-1,-1.8769029E0,3.189068E0,9.4420314E-1,-2.2811046E-1,-3.3065355E-1,-1.507755E0,-1.1375674E0,1.5702063E0,2.1684632E0,-1.8011851E0,4.121203E-1,1.4807688E0,-7.552511E-1,-2.709875E0,-3.876792E-1,1.2777418E0,1.3231139E0,-4.3696722E-1,-1.6855732E0,5.5358577E-1,-2.658601E0,-1.2220697E0,-3.7585947E-1,-1.6998302E0,-1.1875814E-1,-8.7196654E-1,-1.3195915E0,-1.5366943E-1,-9.7753257E-1,-1.5762984E0,7.1331215E-1,-9.25554E-1],"categories":[],"categories_nodes":[],"categories_segments":[],"categories_sizes":[],"default_left":[0,0,0,0,0,0,0,0,0,0,0,0,0,0,0,0,0,0,0,0,0,0,0,0,0,0,0,0,0,0,0,0,0,0,0,0,0,0,0,0,0,0,0,0,0,0,0,0,0,0,0,0,0,0,0,0,0,0,0,0,0,0,0,0,0,0,0,0,0,0,0,0,0,0,0,0,0,0,0,0,0,0,0,0,0,0,0,0,0,0,0,0,0,0,0,0,0,0,0,0,0,0,0,0,0,0,0,0,0,0,0,0,0],"id":2,"left_children":[1,3,5,7,9,11,13,15,17,19,21,23,25,27,29,31,33,35,37,39,41,43,45,47,-1,49,-1,51,53,55,57,59,61,63,65,67,69,71,73,75,77,79,81,83,-1,85,87,89,91,93,95,97,99,101,103,105,107,109,111,-1,-1,-1,-1,-1,-1,-1,-1,-1,-1,-1,-1,-1,-1,-1,-1,-1,-1,-1,-1,-1,-1,-1,-1,-1,-1,-1,-1,-1,-1,-1,-1,-1,-1,-1,-1,-1,-1,-1,-1,-1,-1,-1,-1,-1,-1,-1,-1,-1,-1,-1,-1,-1,-1],"loss_changes":[2.8146709E4,6.3576426E3,7.1242617E3,1.6370164E3,4.896459E3,1.4714473E3,2.365877E3,4.9051392E2,3.3536353E2,2.8713027E3,1.2449049E3,6.080696E2,1.4938646E3,1.6326738E3,1.9576133E3,3.963031E2,6.724831E2,6.951375E2,6.9925415E1,2.1148066E3,2.8043247E3,7.3374426E2,7.902666E2,6.7589136E2,0E0,9.516803E2,0E0,1.5324307E3,6.4228125E2,7.149856E2,1.01733594E3,6.9005237E2,5.413403E2,7.074129E2,4.0305963E2,3.406466E2,1.0010849E2,4.4556763E1,8.998437E1,1.7446387E3,2.4090488E3,1.3419066E3,1.2080322E3,8.613655E2,0E0,4.9736383E2,1.9712515E2,4.5193945E2,3.2160254E2,4.138518E2,6.8638135E2,3.7976074E2,1.1224136E3,1.583097E2,7.3274634E2,7.133263E2,7.620808E2,7.0245703E2,4.817585E2,0E0,0E0,0E0,0E0,0E0,0E0,0E0,0E0,0E0,0E0,0E0,0E0,0E0,0E0,0E0,0E0,0E0,0E0,0E0,0E0,0E0,0E0,0E0,0E0,0E0,0E0,0E0,0E0,0E0,0E0,0E0,0E0,0E0,0E0,0E0,0E0,0E0,0E0,0E0,0E0,0E0,0E0,0E0,0E0,0E0,0E0,0E0,0E0,0E0,0E0,0E0,0E0,0E0,0E0],"parents":[2147483647,0,0,1,1,2,2,3,3,4,4,5,5,6,6,7,7,8,8,9,9,10,10,11,11,12,12,13,13,14,14,15,15,16,16,17,17,18,18,19,19,20,20,21,21,22,22,23,23,25,25,27,27,28,28,29,29,30,30,31,31,32,32,33,33,34,34,35,35,36,36,37,37,38,38,39,39,40,40,41,41,42,42,43,43,45,45,46,46,47,47,48,48,49,49,50,50,51,51,52,52,53,53,54,54,55,55,56,56,57,57,58,58],"right_children":[2,4,6,8,10,12,14,16,18,20,22,24,26,28,30,32,34,36,38,40,42,44,46,48,-1,50,-1,52,54,56,58,60,62,64,66,68,70,72,74,76,78,80,82,84,-1,86,88,90,92,94,96,98,100,102,104,106,108,110,112,-1,-1,-1,-1,-1,-1,-1,-1,-1,-1,-1,-1,-1,-1,-1,-1,-1,-1,-1,-1,-1,-1,-1,-1,-1,-1,-1,-1,-1,-1,-1,-1,-1,-1,-1,-1,-1,-1,-1,-1,-1,-1,-1,-1,-1,-1,-1,-1,-1,-1,-1,-1,-1,-1],"split_conditions":[2.2263452E2,4.972019E1,1.3441071E1,1.9228851E1,2.0121683E2,1.0295669E1,2.428054E2,1.370839E1,2.5501621E1,1E0,1.8345877E1,1.006025E1,1.02E1,1.9373219E1,1E-1,8.824834E0,1.5785248E1,2.5294964E1,1.47415E1,1.6992609E1,1.9131086E1,2.2697752E1,1.8462334E1,1.0495713E1,4.8046722E0,1.6712334E1,4.5359097E0,1.2164416E1,2.0275385E1,2.9360443E2,1.7479E1,8.316501E0,1.3554001E1,4.1727495E0,1.4372974E1,6.9602513E0,2.1269166E0,7E-1,1.4993583E1,5.2852497E0,1.19102745E2,2.4192429E1,7.0992935E1,1.3458164E1,4.176265E0,2.9793125E1,1.970815E1,8.731084E0,5E-1,1.1000001E0,2E-1,1.4000002E0,1.6533167E1,2E-1,5.1999993E0,1.9914215E1,3.411138E2,1.7998334E0,1.665754E1,7.859883E-1,5.4625506E0,-1.8735489E0,4.456132E-1,9.4380334E-2,-1.176252E0,-1.5026774E0,1.4639332E0,-5.296273E-1,-1.5703834E0,5.0116415E0,5.964967E-1,-1.1986222E0,-2.1043785E0,1.3464967E0,-1.260857E0,1.813565E0,7.952331E-1,8.734182E-1,2.5451615E0,6.76986E-1,-4.3560907E-1,-1.8769029E0,3.189068E0,9.4420314E-1,-2.2811046E-1,-3.3065355E-1,-1.507755E0,-1.1375674E0,1.5702063E0,2.1684632E0,-1.8011851E0,4.121203E-1,1.4807688E0,-7.552511E-1,-2.709875E0,-3.876792E-1,1.2777418E0,1.3231139E0,-4.3696722E-1,-1.6855732E0,5.5358577E-1,-2.658601E0,-1.2220697E0,-3.7585947E-1,-1.6998302E0,-1.1875814E-1,-8.7196654E-1,-1.3195915E0,-1.5366943E-1,-9.7753257E-1,-1.5762984E0,7.1331215E-1,-9.25554E-1],"split_indices":[3,3,2,2,3,0,3,2,2,1,2,0,1,2,1,0,0,2,0,2,0,0,0,2,0,0,0,0,2,3,0,0,0,0,2,0,0,1,0,0,3,2,3,0,0,2,2,0,1,1,1,1,0,1,1,2,3,0,2,0,0,0,0,0,0,0,0,0,0,0,0,0,0,0,0,0,0,0,0,0,0,0,0,0,0,0,0,0,0,0,0,0,0,0,0,0,0,0,0,0,0,0,0,0,0,0,0,0,0,0,0,0,0],"split_type":[0,0,0,0,0,0,0,0,0,0,0,0,0,0,0,0,0,0,0,0,0,0,0,0,0,0,0,0,0,0,0,0,0,0,0,0,0,0,0,0,0,0,0,0,0,0,0,0,0,0,0,0,0,0,0,0,0,0,0,0,0,0,0,0,0,0,0,0,0,0,0,0,0,0,0,0,0,0,0,0,0,0,0,0,0,0,0,0,0,0,0,0,0,0,0,0,0,0,0,0,0,0,0,0,0,0,0,0,0,0,0,0,0],"sum_hessian":[5.368E3,2.766E3,2.602E3,4.83E2,2.283E3,3.55E2,2.247E3,3.12E2,1.71E2,1.759E3,5.24E2,1.9E2,1.65E2,4.98E2,1.749E3,1.22E2,1.9E2,1.27E2,4.4E1,1.063E3,6.96E2,2.41E2,2.83E2,1.87E2,3E0,1.6E2,5E0,1.85E2,3.13E2,7.5E2,9.99E2,7.5E1,4.7E1,1.59E2,3.1E1,1.25E2,2E0,4.1E1,3E0,7.01E2,3.62E2,6.45E2,5.1E1,2.37E2,4E0,2.6E2,2.3E1,4.9E1,1.38E2,7.2E1,8.8E1,1.06E2,7.9E1,3.3E1,2.8E2,4.56E2,2.94E2,9.36E2,6.3E1,7.3E1,2E0,1.1E1,3.6E1,9E1,6.9E1,4E0,2.7E1,8.1E1,4.4E1,1E0,1E0,1.2E1,2.9E1,1E0,2E0,2.23E2,4.78E2,1.15E2,2.47E2,5.26E2,1.19E2,4E0,4.7E1,1.46E2,9.1E1,2.23E2,3.7E1,2E0,2.1E1,4.7E1,2E0,1.05E2,3.3E1,6.1E1,1.1E1,4.8E1,4E1,9.4E1,1.2E1,4.1E1,3.8E1,1.6E1,1.7E1,2.36E2,4.4E1,2.49E2,2.07E2,2.29E2,6.5E1,2.46E2,6.9E2,2.9E1,3.4E1],"tree_param":{"num_deleted":"0","num_feature":"4","num_nodes":"113","size_leaf_vector":"1"}},{"base_weights":[9.653993E-3,1.5671184E0,-1.6459409E0,1.3981951E0,9.296713E0,3.6977264E-1,-2.3674586E0,-2.1842175E0,1.7001122E0,9.9621315E0,1.1777191E-1,4.213853E0,-5.2432597E-2,-1.6409886E0,-3.3667974E0,1.7085166E0,-2.8896701E0,2.374418E0,4.655213E-1,1.1193602E1,5.9319696E0,2.690719E0,-2.631833E0,5.2942934E0,3.7152874E-1,-1.4794761E-1,4.40816E0,-1.2651672E0,-4.0244274E0,-2.607768E0,-4.4261856E0,-1.0245321E0,5.490835E0,-3.0705278E0,8.744158E0,8.3719677E-1,3.5364494E0,-4.5656643E0,7.2190547E-1,8.329222E0,4.317273E0,1.9441118E0,9.178331E0,5.7296405E0,-1.4711199E0,-2.7524924E0,1.6422435E0,7.227544E-1,-1.5375224E0,-5.778051E-1,-1.9955401E0,-4.5463414E0,-1.5693644E0,-2.9323199E0,2.5381872E-1,-3.4930615E0,-5.5815988E0,-1.6184568E0,1.921379E-2,8.8584274E-1,5.772776E0,-1.0081679E0,8.150376E-1,4.2648573E0,-3.299861E-1,5.8227664E-1,-5.745797E-1,1.0275596E0,5.2672243E0,-2.4676917E0,1.6724218E0,6.265677E-1,-5.2888572E-2,3.894273E0,-2.597741E-1,1.0537763E0,-5.522629E-1,5.9532756E-1,3.373669E0,1.3702724E0,3.3778627E0,-1.1763492E0,8.8185173E-1,1.10579975E-1,-2.2855294E0,1.0105939E0,-1.3979541E0,3.877272E-1,-5.324145E-1,-1.3978415E0,2.0433713E-1,-2.3939778E-1,7.627039E-1,-6.3078755E-1,2.4894633E0,-1.0323493E-1,-1.449955E0,-9.09505E-1,4.0979332E-1,-1.0603289E-1,-1.0271765E0,1.3316705E0,-4.142292E-1,-1.3102852E0,-4.6636474E-1,6.3735604E-1,-1.7597703E0],"categories":[],"categories_nodes":[],"categories_segments":[],"categories_sizes":[],"default_left":[0,0,0,0,0,0,0,0,0,0,0,0,0,0,0,0,0,0,0,0,0,0,0,0,0,0,0,0,0,0,0,0,0,0,0,0,0,0,0,0,0,0,0,0,0,0,0,0,0,0,0,0,0,0,0,0,0,0,0,0,0,0,0,0,0,0,0,0,0,0,0,0,0,0,0,0,0,0,0,0,0,0,0,0,0,0,0,0,0,0,0,0,0,0,0,0,0,0,0,0,0,0,0,0,0,0,0],"id":3,"left_children":[1,3,5,7,9,11,13,15,17,19,21,23,25,27,29,31,33,35,37,39,41,-1,-1,43,45,47,-1,49,51,53,55,57,59,61,63,65,67,69,71,73,-1,75,77,79,81,83,85,87,89,91,93,95,97,99,101,103,105,-1,-1,-1,-1,-1,-1,-1,-1,-1,-1,-1,-1,-1,-1,-1,-1,-1,-1,-1,-1,-1,-1,-1,-1,-1,-1,-1,-1,-1,-1,-1,-1,-1,-1,-1,-1,-1,-1,-1,-1,-1,-1,-1,-1,-1,-1,-1,-1,-1,-1],"loss_changes":[1.3846708E4,3.599898E3,3.786608E3,2.9337446E3,3.5918848E2,1.1152157E3,1.3861973E3,5.8437256E2,2.079291E3,2.065669E2,4.7214774E2,2.8032837E2,8.754395E2,9.9097974E2,6.3656836E2,3.4675513E2,4.0347717E2,2.8836992E3,1.143582E3,2.55625E2,1.7634674E2,0E0,0E0,1.6453003E2,6.803611E1,7.47623E2,0E0,4.818004E2,1.8634619E2,4.3910645E2,3.4168164E2,9.549429E1,4.3181256E2,3.0622534E2,1.7723906E2,2.1211775E3,1.374919E3,1.6417412E3,1.0339476E3,1.0377898E3,0E0,5.395952E1,9.665576E1,2.6987683E2,5.4751183E1,7.874338E1,1.462567E2,5.429319E2,1.6516808E3,3.4347687E2,5.311223E2,1.4780322E2,1.24328575E2,5.363286E2,3.4133142E2,3.119336E2,3.3670947E2,0E0,0E0,0E0,0E0,0E0,0E0,0E0,0E0,0E0,0E0,0E0,0E0,0E0,0E0,0E0,0E0,0E0,0E0,0E0,0E0,0E0,0E0,0E0,0E0,0E0,0E0,0E0,0E0,0E0,0E0,0E0,0E0,0E0,0E0,0E0,0E0,0E0,0E0,0E0,0E0,0E0,0E0,0E0,0E0,0E0,0E0,0E0,0E0,0E0,0E0],"parents":[2147483647,0,0,1,1,2,2,3,3,4,4,5,5,6,6,7,7,8,8,9,9,10,10,11,11,12,12,13,13,14,14,15,15,16,16,17,17,18,18,19,19,20,20,23,23,24,24,25,25,27,27,28,28,29,29,30,30,31,31,32,32,33,33,34,34,35,35,36,36,37,37,38,38,39,39,41,41,42,42,43,43,44,44,45,45,46,46,47,47,48,48,49,49,50,50,51,51,52,52,53,53,54,54,55,55,56,56],"right_children":[2,4,6,8,10,12,14,16,18,20,22,24,26,28,30,32,34,36,38,40,42,-1,-1,44,46,48,-1,50,52,54,56,58,60,62,64,66,68,70,72,74,-1,76,78,80,82,84,86,88,90,92,94,96,98,100,102,104,106,-1,-1,-1,-1,-1,-1,-1,-1,-1,-1,-1,-1,-1,-1,-1,-1,-1,-1,-1,-1,-1,-1,-1,-1,-1,-1,-1,-1,-1,-1,-1,-1,-1,-1,-1,-1,-1,-1,-1,-1,-1,-1,-1,-1,-1,-1,-1,-1,-1,-1],"split_conditions":[2.2263452E2,2.2697752E1,1.5530151E1,1.9534058E1,2.1892027E1,1.0390226E1,2.770048E2,1.2661564E1,1.8130618E2,1.7865529E2,2.3439415E1,3.3217596E2,2.3439415E1,2.9793125E1,2.226477E1,1.2822018E1,1.92E1,9.728057E1,-3.835E-1,1.2266763E2,1.9952689E2,2.690719E0,-2.631833E0,1.7551918E1,3.411138E2,1.2420666E1,4.40816E0,2.4907835E2,2.6009686E2,3.5335855E2,8.000001E-1,9.504273E0,1.224E1,1.6712334E1,3.8108346E-1,1.8947083E1,3.165135E1,2.1326968E2,2E-1,9.5149796E1,4.317273E0,1E-1,1E-1,2.9783173E2,1.95665E1,1.1227499E0,6E-1,3.2761935E2,1.6712334E1,1.8206083E1,2.95551E1,2.2451688E2,8E-1,1.6454008E1,1.0519165E0,3.2598297E2,-3.2585E0,-1.6184568E0,1.921379E-2,8.8584274E-1,5.772776E0,-1.0081679E0,8.150376E-1,4.2648573E0,-3.299861E-1,5.8227664E-1,-5.745797E-1,1.0275596E0,5.2672243E0,-2.4676917E0,1.6724218E0,6.265677E-1,-5.2888572E-2,3.894273E0,-2.597741E-1,1.0537763E0,-5.522629E-1,5.9532756E-1,3.373669E0,1.3702724E0,3.3778627E0,-1.1763492E0,8.8185173E-1,1.10579975E-1,-2.2855294E0,1.0105939E0,-1.3979541E0,3.877272E-1,-5.324145E-1,-1.3978415E0,2.0433713E-1,-2.3939778E-1,7.627039E-1,-6.3078755E-1,2.4894633E0,-1.0323493E-1,-1.449955E0,-9.09505E-1,4.0979332E-1,-1.0603289E-1,-1.0271765E0,1.3316705E0,-4.142292E-1,-1.3102852E0,-4.6636474E-1,6.3735604E-1,-1.7597703E0],"split_indices":[3,0,2,3,2,2,3,2,3,3,0,3,0,2,2,3,1,3,0,3,3,0,0,0,3,0,0,3,3,3,1,2,2,0,0,2,2,3,1,3,0,1,1,3,0,0,1,3,0,0,2,3,1,2,0,3,0,0,0,0,0,0,0,0,0,0,0,0,0,0,0,0,0,0,0,0,0,0,0,0,0,0,0,0,0,0,0,0,0,0,0,0,0,0,0,0,0,0,0,0,0,0,0,0,0,0,0],"split_type":[0,0,0,0,0,0,0,0,0,0,0,0,0,0,0,0,0,0,0,0,0,0,0,0,0,0,0,0,0,0,0,0,0,0,0,0,0,0,0,0,0,0,0,0,0,0,0,0,0,0,0,0,0,0,0,0,0,0,0,0,0,0,0,0,0,0,0,0,0,0,0,0,0,0,0,0,0,0,0,0,0,0,0,0,0,0,0,0,0,0,0,0,0,0,0,0,0,0,0,0,0,0,0,0,0,0,0],"sum_hessian":[5.368E3,2.766E3,2.602E3,2.708E3,5.8E1,6.86E2,1.916E3,2.1E2,2.498E3,5.4E1,4E0,6.7E1,6.19E2,1.111E3,8.05E2,3.2E1,1.78E2,1.615E3,8.83E2,4E1,1.4E1,2E0,2E0,5.2E1,1.5E1,6.16E2,3E0,9.61E2,1.5E2,4.71E2,3.34E2,1.9E1,1.3E1,1.76E2,2E0,6.96E2,9.19E2,4.2E1,8.41E2,2.3E1,1.7E1,7E0,7E0,4.9E1,3E0,4E0,1.1E1,3.79E2,2.37E2,4.96E2,4.65E2,1.23E2,2.7E1,4.23E2,4.8E1,1.87E2,1.47E2,3E0,1.6E1,1.2E1,1E0,1.68E2,8E0,1E0,1E0,4.97E2,1.99E2,9.13E2,6E0,3.1E1,1.1E1,3.33E2,5.08E2,1.5E1,8E0,5E0,2E0,2E0,5E0,4.2E1,7E0,2E0,1E0,3E0,1E0,9E0,2E0,3.09E2,7E1,9.8E1,1.39E2,4.64E2,3.2E1,4.61E2,4E0,8E0,1.15E2,1.8E1,9E0,6.8E1,3.55E2,1.3E1,3.5E1,1.28E2,5.9E1,5E0,1.42E2],"tree_param":{"num_deleted":"0","num_feature":"4","num_nodes":"107","size_leaf_vector":"1"}},{"base_weights":[1.2259128E-2,1.3758864E0,-9.65876E-1,-5.066585E-1,1.9514643E0,-1.5594597E-1,-1.7201802E0,2.9717724E0,-8.863885E-1,2.4184299E0,1.3244933E-1,1.0413765E0,-7.086729E-1,-1.4313445E0,-3.8098834E0,6.3441157E0,-1.9152466E0,-3.4185037E-1,-2.5686932E0,1.334423E0,3.3432467E0,4.9379196E0,-2.9807875E-1,3.2607427E0,9.089674E-2,1.2829933E0,-1.408084E0,-9.7010326E-1,-2.4472146E0,-3.934367E0,3.148922E0,-1.8617171E0,7.423612E0,-3.2291229E0,2.2447033E0,-8.19863E-1,1.9246515E0,-1.1508595E0,-5.1342216E0,4.0600686E0,-5.4352567E-2,-3.2390223E0,3.99551E0,1.2180017E1,-1.7075359E0,-2.058424E0,9.863115E-1,-4.0533838E-1,4.7383375E0,-3.2680404E-1,4.682359E0,6.722765E-1,4.0808296E0,-1.659072E0,1.8621085E0,4.891185E0,-1.0661803E0,-1.8749323E0,-3.5791104E0,-3.4187334E0,-5.303018E0,2.110069E0,-1.2757502E0,1.6236206E0,6.9158916E0,-1.9795111E0,-3.941543E-1,-9.604003E-3,-5.8215815E-1,-1.6370631E0,8.834361E-1,-5.194275E-1,2.2318368E0,-1.9207039E0,-7.5279456E-1,6.559133E-1,2.0404823E0,-6.459824E-1,4.2047116E-1,2.9953372E0,-1.3399414E0,1.7914658E-2,1.3274313E0,4.69321E0,-1.7208148E0,-3.5413003E0,7.925274E-1,-3.3043018E-1,-1.8905045E0,-1.5544758E0,5.892291E-1,-4.8943767E-1,7.4798408E0,3.2167027E0,1.0501069E0,-8.239033E-1,9.57255E-2,4.042552E0,9.264644E-1,1.4544177E-1,3.230467E0,6.4728403E0,9.748568E-1,-5.671467E-1,7.1306807E-1,2.2515702E0,-3.9740595E-1,3.716945E0,-6.953193E-1,-9.708715E-2,-5.131332E-1,-6.504255E-1,5.664071E-1,-1.2604153E0,-1.0484047E-1,-1.0733037E0,1.5573806E0,-2.000948E0,-9.5944256E-1],"categories":[],"categories_nodes":[],"categories_segments":[],"categories_sizes":[],"default_left":[0,0,0,0,0,0,0,0,0,0,0,0,0,0,0,0,0,0,0,0,0,0,0,0,0,0,0,0,0,0,0,0,0,0,0,0,0,0,0,0,0,0,0,0,0,0,0,0,0,0,0,0,0,0,0,0,0,0,0,0,0,0,0,0,0,0,0,0,0,0,0,0,0,0,0,0,0,0,0,0,0,0,0,0,0,0,0,0,0,0,0,0,0,0,0,0,0,0,0,0,0,0,0,0,0,0,0,0,0,0,0,0,0,0,0,0,0,0,0],"id":4,"left_children":[1,3,5,7,9,11,13,15,17,19,21,23,25,27,29,31,33,35,37,39,41,43,45,47,49,51,53,55,57,59,61,-1,63,65,-1,67,69,71,73,75,77,79,81,83,85,87,89,91,93,95,97,99,101,103,105,107,109,111,113,115,117,-1,-1,-1,-1,-1,-1,-1,-1,-1,-1,-1,-1,-1,-1,-1,-1,-1,-1,-1,-1,-1,-1,-1,-1,-1,-1,-1,-1,-1,-1,-1,-1,-1,-1,-1,-1,-1,-1,-1,-1,-1,-1,-1,-1,-1,-1,-1,-1,-1,-1,-1,-1,-1,-1,-1,-1,-1,-1],"loss_changes":[7.162564E3,2.431394E3,1.9101211E3,6.974089E2,1.4589795E3,9.9938275E2,9.7174414E2,8.6914734E2,4.3425937E2,1.3659663E3,7.297212E2,1.0059172E3,1.4407689E3,6.6485693E2,1.8217554E2,4.660415E2,2.9580136E2,3.916079E2,4.1604034E2,2.388751E3,3.1771582E3,1.416482E3,7.345846E2,7.765493E2,6.4401245E2,4.5689294E2,6.309855E2,5.5765094E2,2.8089673E2,1.1807495E2,1.4491771E2,0E0,7.869708E2,1.2039145E2,0E0,2.6304648E2,4.9046924E2,3.9191113E2,1.2041162E2,1.0792666E3,1.283427E3,1.1320823E3,1.1333789E3,9.585962E2,7.338071E2,5.493825E2,1.1439824E3,1.3455167E3,7.180925E2,4.8220468E2,3.5086218E2,4.1495734E2,6.279986E2,6.685609E2,9.990336E2,8.9362836E2,4.615829E2,3.3171997E2,2.959707E2,2.1427087E2,1.2539392E2,0E0,0E0,0E0,0E0,0E0,0E0,0E0,0E0,0E0,0E0,0E0,0E0,0E0,0E0,0E0,0E0,0E0,0E0,0E0,0E0,0E0,0E0,0E0,0E0,0E0,0E0,0E0,0E0,0E0,0E0,0E0,0E0,0E0,0E0,0E0,0E0,0E0,0E0,0E0,0E0,0E0,0E0,0E0,0E0,0E0,0E0,0E0,0E0,0E0,0E0,0E0,0E0,0E0,0E0,0E0,0E0,0E0,0E0],"parents":[2147483647,0,0,1,1,2,2,3,3,4,4,5,5,6,6,7,7,8,8,9,9,10,10,11,11,12,12,13,13,14,14,15,15,16,16,17,17,18,18,19,19,20,20,21,21,22,22,23,23,24,24,25,25,26,26,27,27,28,28,29,29,30,30,32,32,33,33,35,35,36,36,37,37,38,38,39,39,40,40,41,41,42,42,43,43,44,44,45,45,46,46,47,47,48,48,49,49,50,50,51,51,52,52,53,53,54,54,55,55,56,56,57,57,58,58,59,59,60,60],"right_children":[2,4,6,8,10,12,14,16,18,20,22,24,26,28,30,32,34,36,38,40,42,44,46,48,50,52,54,56,58,60,62,-1,64,66,-1,68,70,72,74,76,78,80,82,84,86,88,90,92,94,96,98,100,102,104,106,108,110,112,114,116,118,-1,-1,-1,-1,-1,-1,-1,-1,-1,-1,-1,-1,-1,-1,-1,-1,-1,-1,-1,-1,-1,-1,-1,-1,-1,-1,-1,-1,-1,-1,-1,-1,-1,-1,-1,-1,-1,-1,-1,-1,-1,-1,-1,-1,-1,-1,-1,-1,-1,-1,-1,-1,-1,-1,-1,-1,-1,-1],"split_conditions":[2.0121683E2,5.3891533E1,1.8847641E1,1.1212135E1,3.7999997E0,2.4149667E2,3.1394394E1,6.5915E0,2.1629978E1,1.52947035E1,1.2287555E1,5.204E0,1.3276144E1,2.7801056E2,1.7479E1,9.124919E0,4.972019E1,1.5785248E1,6.789417E0,5.2852497E0,-3.835E-1,1.1939418E1,4.8269176E0,2.1326968E2,4E0,9E-1,1.8374111E1,-1.8668332E0,6.1852493E0,9.124833E0,1.7629E1,-1.8617171E0,4.104E0,1.3083164E1,2.2447033E0,4.764417E0,1.2538134E1,5.754001E0,1.47415E1,1.7290001E0,1.4416499E1,5.789379E1,7.491044E1,7.6000004E0,5.2999997E0,9.6E0,4.7E0,4.8956666E0,2.180509E2,1.2783802E1,2.0400945E2,1.3217443E1,9.0000004E-1,1.878942E1,1.8532133E1,2.0948164E1,4E-1,6.0000005E0,1.5851916E1,8.926917E0,3.1E0,2.110069E0,-1.2757502E0,1.6236206E0,6.9158916E0,-1.9795111E0,-3.941543E-1,-9.604003E-3,-5.8215815E-1,-1.6370631E0,8.834361E-1,-5.194275E-1,2.2318368E0,-1.9207039E0,-7.5279456E-1,6.559133E-1,2.0404823E0,-6.459824E-1,4.2047116E-1,2.9953372E0,-1.3399414E0,1.7914658E-2,1.3274313E0,4.69321E0,-1.7208148E0,-3.5413003E0,7.925274E-1,-3.3043018E-1,-1.8905045E0,-1.5544758E0,5.892291E-1,-4.8943767E-1,7.4798408E0,3.2167027E0,1.0501069E0,-8.239033E-1,9.57255E-2,4.042552E0,9.264644E-1,1.4544177E-1,3.230467E0,6.4728403E0,9.748568E-1,-5.671467E-1,7.1306807E-1,2.2515702E0,-3.9740595E-1,3.716945E0,-6.953193E-1,-9.708715E-2,-5.131332E-1,-6.504255E-1,5.664071E-1,-1.2604153E0,-1.0484047E-1,-1.0733037E0,1.5573806E0,-2.000948E0,-9.5944256E-1],"split_indices":[3,3,2,2,1,3,2,0,2,2,2,0,2,3,0,3,3,0,0,0,0,0,0,3,1,1,2,0,0,0,0,0,0,0,0,0,2,0,0,0,0,3,3,1,1,1,1,0,3,2,3,2,1,0,2,2,1,1,0,0,1,0,0,0,0,0,0,0,0,0,0,0,0,0,0,0,0,0,0,0,0,0,0,0,0,0,0,0,0,0,0,0,0,0,0,0,0,0,0,0,0,0,0,0,0,0,0,0,0,0,0,0,0,0,0,0,0,0,0],"split_type":[0,0,0,0,0,0,0,0,0,0,0,0,0,0,0,0,0,0,0,0,0,0,0,0,0,0,0,0,0,0,0,0,0,0,0,0,0,0,0,0,0,0,0,0,0,0,0,0,0,0,0,0,0,0,0,0,0,0,0,0,0,0,0,0,0,0,0,0,0,0,0,0,0,0,0,0,0,0,0,0,0,0,0,0,0,0,0,0,0,0,0,0,0,0,0,0,0,0,0,0,0,0,0,0,0,0,0,0,0,0,0,0,0,0,0,0,0,0,0],"sum_hessian":[5.368E3,2.242E3,3.126E3,5.25E2,1.717E3,1.508E3,1.618E3,5.1E1,4.74E2,1.366E3,3.51E2,4.76E2,1.032E3,1.423E3,1.95E2,3E1,2.1E1,3.59E2,1.15E2,6.3E2,7.36E2,2.8E1,3.23E2,1.42E2,3.34E2,2.68E2,7.64E2,9.8E2,4.43E2,1.92E2,3E0,2E0,2.8E1,1.9E1,2E0,2.97E2,6.2E1,7.5E1,4E1,2.12E2,4.18E2,6.6E1,6.7E2,1.3E1,1.5E1,1.36E2,1.87E2,4.1E1,1.01E2,3.07E2,2.7E1,2.21E2,4.7E1,7.1E2,5.4E1,1.5E1,9.65E2,2.96E2,1.47E2,1.42E2,5E1,2E0,1E0,2.6E1,2E0,6E0,1.3E1,1.75E2,1.22E2,7E0,5.5E1,7.1E1,4E0,2.6E1,1.4E1,1.27E2,8.5E1,1.71E2,2.47E2,5E0,6.1E1,6.6E1,6.04E2,1.1E1,2E0,4E0,1.1E1,1.12E2,2.4E1,2.5E1,1.62E2,4E1,1E0,1.6E1,8.5E1,6.4E1,2.43E2,3E0,2.4E1,2.18E2,3E0,1E0,4.6E1,6.72E2,3.8E1,1.9E1,3.5E1,7E0,8E0,4.49E2,5.16E2,2.75E2,2.1E1,1.23E2,2.4E1,1.4E2,2E0,2.9E1,2.1E1],"tree_param":{"num_deleted":"0","num_feature":"4","num_nodes":"119","size_leaf_vector":"1"}},{"base_weights":[1.4987453E-2,9.1192645E-1,-7.392828E-1,7.6315445E-1,4.997742E0,4.7444165E-1,-1.1184098E0,-4.9098527E-1,1.0805987E0,2.8209727E0,7.67311E0,3.8997674E-1,3.615782E0,-7.843064E-1,-1.9601027E0,1.7565917E0,-7.3381466E-1,1.1739128E0,-4.744E0,8.487434E0,9.5732766E-1,9.4732065E0,3.4826777E0,1.2659593E0,-5.777182E-1,-3.891554E-1,-1.8254257E0,-2.2993398E0,2.7089786E-2,4.6479E0,-2.3790696E0,-3.9782882E0,-5.2526045E-1,1.8385516E0,3.51479E-1,-5.7452493E0,3.2004333E0,4.860734E0,9.693192E0,-1.2686274E0,4.0973053E0,-1.73491E-1,9.898399E0,-2.2256665E0,5.0093822E0,1.1675717E0,9.804354E0,-1.7916826E0,7.314995E-1,1.4644268E0,-8.337569E-1,-3.3308294E0,-1.9008237E-1,-1.0871129E0,-2.5696201E0,-2.7013683E0,1.7977189E0,4.6240902E-1,2.4341397E0,2.55019E-1,-1.1471108E0,-1.9388204E0,-4.1614172E-1,-1.4567075E0,-1.0771897E-1,4.002243E-1,1.9535233E0,2.7671167E-1,-8.854259E-1,-2.0321782E0,-5.515403E-1,2.540598E-1,1.5391704E0,2.0377054E0,3.926617E-1,1.0027283E0,3.375913E0,8.650542E-2,-1.4605887E0,1.8131406E0,-9.7594076E-1,4.149988E0,2.279894E0,2.3683982E0,5.4619825E-1,1.384503E0,2.853623E-1,-1.4678705E0,4.900322E0,2.5234489E-2,-1.1206423E0,-1.4707924E-1,1.6233817E0,3.6325094E-1,4.532756E0,-1.5751667E0,-2.1040691E-1,-1.1558751E0,-3.791571E-3,2.5607004E0,-1.3299231E-1,1.088792E0,-5.691311E-1,6.233107E-1,-7.8834426E-1,-1.0015156E0,1.6892852E0,-8.850808E-1,9.3882316E-1],"categories":[],"categories_nodes":[],"categories_segments":[],"categories_sizes":[],"default_left":[0,0,0,0,0,0,0,0,0,0,0,0,0,0,0,0,0,0,0,0,0,0,0,0,0,0,0,0,0,0,0,0,0,0,0,0,0,0,0,0,0,0,0,0,0,0,0,0,0,0,0,0,0,0,0,0,0,0,0,0,0,0,0,0,0,0,0,0,0,0,0,0,0,0,0,0,0,0,0,0,0,0,0,0,0,0,0,0,0,0,0,0,0,0,0,0,0,0,0,0,0,0,0,0,0,0,0,0,0],"id":5,"left_children":[1,3,5,7,9,11,13,15,17,19,21,23,-1,25,27,29,31,33,35,37,39,41,43,45,47,49,51,53,55,57,59,61,63,65,67,69,71,73,75,77,79,-1,81,-1,83,85,87,89,91,93,95,97,99,101,103,105,107,-1,-1,-1,-1,-1,-1,-1,-1,-1,-1,-1,-1,-1,-1,-1,-1,-1,-1,-1,-1,-1,-1,-1,-1,-1,-1,-1,-1,-1,-1,-1,-1,-1,-1,-1,-1,-1,-1,-1,-1,-1,-1,-1,-1,-1,-1,-1,-1,-1,-1,-1,-1],"loss_changes":[3.6329873E3,1.4872543E3,1.3428047E3,9.4327783E2,4.791892E2,6.7497424E2,6.235979E2,2.6271655E2,1.0328157E3,5.0932806E2,2.5364893E2,5.8648096E2,0E0,6.5464886E2,4.25438E2,5.730589E2,2.9089917E2,1.0166162E3,2.5701807E2,5.359009E0,2.70797E2,1.1684375E2,2.5352916E2,2.934989E2,5.242046E2,9.53887E2,1.077658E3,1.7380493E2,4.541474E2,2.8896802E2,9.654863E1,1.5841217E2,2.9189648E2,2.4171687E3,1.5734288E3,9.605438E1,1.3825901E1,2.5413864E1,4.163739E1,1.303218E2,2.4858307E2,0E0,1.21005615E2,0E0,9.603067E1,2.641347E2,4.6381805E2,6.2380756E2,9.1174756E2,7.5678534E2,5.4192334E2,3.949353E2,4.700055E2,3.889107E2,1.24456055E2,2.1518787E2,3.6963544E2,0E0,0E0,0E0,0E0,0E0,0E0,0E0,0E0,0E0,0E0,0E0,0E0,0E0,0E0,0E0,0E0,0E0,0E0,0E0,0E0,0E0,0E0,0E0,0E0,0E0,0E0,0E0,0E0,0E0,0E0,0E0,0E0,0E0,0E0,0E0,0E0,0E0,0E0,0E0,0E0,0E0,0E0,0E0,0E0,0E0,0E0,0E0,0E0,0E0,0E0,0E0,0E0],"parents":[2147483647,0,0,1,1,2,2,3,3,4,4,5,5,6,6,7,7,8,8,9,9,10,10,11,11,13,13,14,14,15,15,16,16,17,17,18,18,19,19,20,20,21,21,22,22,23,23,24,24,25,25,26,26,27,27,28,28,29,29,30,30,31,31,32,32,33,33,34,34,35,35,36,36,37,37,38,38,39,39,40,40,42,42,44,44,45,45,46,46,47,47,48,48,49,49,50,50,51,51,52,52,53,53,54,54,55,55,56,56],"right_children":[2,4,6,8,10,12,14,16,18,20,22,24,-1,26,28,30,32,34,36,38,40,42,44,46,48,50,52,54,56,58,60,62,64,66,68,70,72,74,76,78,80,-1,82,-1,84,86,88,90,92,94,96,98,100,102,104,106,108,-1,-1,-1,-1,-1,-1,-1,-1,-1,-1,-1,-1,-1,-1,-1,-1,-1,-1,-1,-1,-1,-1,-1,-1,-1,-1,-1,-1,-1,-1,-1,-1,-1,-1,-1,-1,-1,-1,-1,-1,-1,-1,-1,-1,-1,-1,-1,-1,-1,-1,-1,-1],"split_conditions":[2.1069302E2,2.1812334E1,1.503835E1,4.972019E1,1E-1,2.3439415E1,1.3000002E0,1.1212135E1,1.54E1,8.461081E1,1.7189687E2,9.026916E0,3.615782E0,1.2274833E1,1.5333165E1,6.5915E0,-4.8543334E0,1.5865948E2,1.5785248E1,2.3439415E1,1.7163355E1,9.83268E0,1.0799999E1,8.926917E0,1.6712334E1,2.3700116E2,1.6449835E1,1.8847641E1,3.1E0,2.5873142E1,1E-1,3E-1,1.1966953E1,1.5076651E2,1.778525E1,1.8008867E2,1.7701918E1,2.2697752E1,1.370839E1,1.4618837E1,2.1892027E1,-1.73491E-1,6E-1,-2.2256665E0,1.5111424E1,2.1742273E2,1E-1,1E-1,1.6E0,1.2000002E0,-5.435583E0,3.151938E2,1.5188415E1,2.2376671E2,-3.2585E0,3.054851E2,2.2214009E2,4.6240902E-1,2.4341397E0,2.55019E-1,-1.1471108E0,-1.9388204E0,-4.1614172E-1,-1.4567075E0,-1.0771897E-1,4.002243E-1,1.9535233E0,2.7671167E-1,-8.854259E-1,-2.0321782E0,-5.515403E-1,2.540598E-1,1.5391704E0,2.0377054E0,3.926617E-1,1.0027283E0,3.375913E0,8.650542E-2,-1.4605887E0,1.8131406E0,-9.7594076E-1,4.149988E0,2.279894E0,2.3683982E0,5.4619825E-1,1.384503E0,2.853623E-1,-1.4678705E0,4.900322E0,2.5234489E-2,-1.1206423E0,-1.4707924E-1,1.6233817E0,3.6325094E-1,4.532756E0,-1.5751667E0,-2.1040691E-1,-1.1558751E0,-3.791571E-3,2.5607004E0,-1.3299231E-1,1.088792E0,-5.691311E-1,6.233107E-1,-7.8834426E-1,-1.0015156E0,1.6892852E0,-8.850808E-1,9.3882316E-1],"split_indices":[3,0,2,3,1,0,1,2,1,3,3,0,0,0,0,0,0,3,0,0,2,2,2,0,0,3,0,2,1,3,1,1,2,3,0,3,0,0,2,2,2,0,1,0,2,3,1,1,1,1,0,3,2,3,0,3,3,0,0,0,0,0,0,0,0,0,0,0,0,0,0,0,0,0,0,0,0,0,0,0,0,0,0,0,0,0,0,0,0,0,0,0,0,0,0,0,0,0,0,0,0,0,0,0,0,0,0,0,0],"split_type":[0,0,0,0,0,0,0,0,0,0,0,0,0,0,0,0,0,0,0,0,0,0,0,0,0,0,0,0,0,0,0,0,0,0,0,0,0,0,0,0,0,0,0,0,0,0,0,0,0,0,0,0,0,0,0,0,0,0,0,0,0,0,0,0,0,0,0,0,0,0,0,0,0,0,0,0,0,0,0,0,0,0,0,0,0,0,0,0,0,0,0,0,0,0,0,0,0,0,0,0,0,0,0,0,0,0,0,0,0],"sum_hessian":[5.368E3,2.452E3,2.916E3,2.367E3,8.5E1,6.94E2,2.222E3,4.78E2,1.889E3,4.8E1,3.7E1,6.9E2,4E0,1.592E3,6.3E2,4.6E1,4.32E2,1.86E3,2.9E1,1.1E1,3.7E1,2.5E1,1.2E1,3.62E2,3.28E2,1.155E3,4.37E2,5.38E2,9.2E1,2.7E1,1.9E1,2.5E1,4.07E2,1.028E3,8.32E2,2.6E1,3E0,4E0,7E0,2.2E1,1.5E1,1E0,2.4E1,1E0,1.1E1,3.59E2,3E0,1.7E2,1.58E2,2.23E2,9.32E2,2.27E2,2.1E2,9.9E1,4.39E2,3.6E1,5.6E1,1.5E1,1.2E1,6E0,1.3E1,1.2E1,1.3E1,1.4E1,3.93E2,9.29E2,9.9E1,7.1E2,1.22E2,2E1,6E0,2E0,1E0,2E0,2E0,2E0,5E0,1.6E1,6E0,1.2E1,3E0,7E0,1.7E1,5E0,6E0,2E1,3.39E2,1E0,2E0,8.7E1,8.3E1,1.26E2,3.2E1,2.2E2,3E0,2.6E1,9.06E2,1.96E2,3.1E1,5E0,2.05E2,1.4E1,8.5E1,5E0,4.34E2,3.4E1,2E0,1.2E1,4.4E1],"tree_param":{"num_deleted":"0","num_feature":"4","num_nodes":"109","size_leaf_vector":"1"}},{"base_weights":[1.5488601E-2,4.4924784E-1,-7.8449297E-1,6.262807E-1,-1.3902379E0,1.4082199E0,-9.745477E-1,5.137779E-1,2.9923024E0,-9.6374077E-1,-5.430789E0,8.8637376E-1,1.0625425E1,-6.519228E-1,-1.9306217E0,1.0330815E0,-8.666291E-2,1.1881168E0,5.7252154E0,-1.455612E0,4.0722203E0,-6.302595E0,-2.3544729E0,2.5852828E0,-1.4676383E0,1.5765078E1,-3.195689E0,-2.5729033E-1,-1.4704336E0,-3.951862E0,-1.683354E0,2.3724937E0,2.6059037E-1,-2.3700588E0,2.0591515E-1,-1.1857505E0,3.3813381E0,-3.4802513E0,6.6772842E0,-5.110748E0,-8.6749667E-1,1.1255767E1,6.5329826E-1,-3.431007E0,-2.1495008E0,-9.2728883E-1,-1.327205E0,1.4317166E0,1.2039255E1,-5.2141514E0,1.2789445E0,1.1685171E0,5.2080216E0,-2.4869873E-1,-1.1893613E0,-4.1201308E-1,1.474502E1,-2.1404307E0,5.035433E-1,-2.8619614E0,-5.5488153E0,-3.6396725E0,-1.4318888E0,-4.7155064E-2,1.1412517E0,9.9777395E-1,-1.3865733E-2,-2.1311417E0,-3.108958E-1,4.4304734E-1,-8.5392535E-2,3.5754818E-1,-1.1938668E0,1.2088583E0,-2.1757646E0,7.851477E-2,-2.1928372E0,2.2074497E0,-3.583896E-1,-8.393759E-1,-3.1839082E0,3.8682601E0,-3.9407757E-1,-3.6750832E-1,4.686061E0,-2.6425753E0,9.398741E-1,-1.4896045E0,8.096943E-2,-5.4573745E-1,1.7127657E-1,-1.9211515E0,7.343162E-1,6.0009513E0,2.0718765E0,9.5464236E-1,-1.8139296E0,-5.780397E-1,1.0219635E0,-1.7854485E-1,8.221237E-1,5.6443995E-1,5.4454618E0,-7.271499E-1,3.9341234E-2,6.1251795E-1,-2.883687E-1,-2.9121676E-1,-1.81212E0,6.1942294E-2,-1.7698522E0,-5.6553316E-1,-1.8207935E0,1.9210182E-1,-6.273488E-1],"categories":[],"categories_nodes":[],"categories_segments":[],"categories_sizes":[],"default_left":[0,0,0,0,0,0,0,0,0,0,0,0,0,0,0,0,0,0,0,0,0,0,0,0,0,0,0,0,0,0,0,0,0,0,0,0,0,0,0,0,0,0,0,0,0,0,0,0,0,0,0,0,0,0,0,0,0,0,0,0,0,0,0,0,0,0,0,0,0,0,0,0,0,0,0,0,0,0,0,0,0,0,0,0,0,0,0,0,0,0,0,0,0,0,0,0,0,0,0,0,0,0,0,0,0,0,0,0,0,0,0,0,0,0,0],"id":6,"left_children":[1,3,5,7,9,11,13,15,17,19,21,23,25,27,29,31,33,35,37,39,41,43,45,47,49,51,53,55,57,59,61,63,65,67,69,71,73,75,77,79,81,83,85,87,-1,89,-1,91,93,95,97,-1,-1,-1,-1,99,101,103,105,107,109,111,113,-1,-1,-1,-1,-1,-1,-1,-1,-1,-1,-1,-1,-1,-1,-1,-1,-1,-1,-1,-1,-1,-1,-1,-1,-1,-1,-1,-1,-1,-1,-1,-1,-1,-1,-1,-1,-1,-1,-1,-1,-1,-1,-1,-1,-1,-1,-1,-1,-1,-1,-1,-1],"loss_changes":[1.8633922E3,1.134782E3,7.8816907E2,8.441293E2,5.220908E2,7.168864E2,5.34833E2,9.461242E2,7.0321594E2,6.9454584E2,6.2937256E1,5.796866E2,6.186662E2,4.198589E2,2.1225452E2,1.6828127E3,9.4113275E2,4.62174E2,5.228002E2,5.415754E2,6.066463E2,2.9899414E1,1.9526619E1,8.9884894E2,6.3436523E2,4.597705E1,2.1723022E0,2.0464086E3,5.6052014E2,6.592395E1,1.8763123E2,2.1555E3,9.716593E2,1.00281165E3,7.791136E2,2.9037E2,3.462917E2,8.788559E1,2.8750195E2,4.1570953E2,1.3675237E3,4.549082E2,4.4990942E2,4.1089302E1,0E0,9.055527E0,0E0,6.207074E2,2.2976208E2,2.0093036E2,2.5210318E2,0E0,0E0,0E0,0E0,5.0448004E2,3.6022803E2,2.0374841E2,2.4529608E2,1.7447202E2,3.7548157E1,1.761286E2,4.781308E2,0E0,0E0,0E0,0E0,0E0,0E0,0E0,0E0,0E0,0E0,0E0,0E0,0E0,0E0,0E0,0E0,0E0,0E0,0E0,0E0,0E0,0E0,0E0,0E0,0E0,0E0,0E0,0E0,0E0,0E0,0E0,0E0,0E0,0E0,0E0,0E0,0E0,0E0,0E0,0E0,0E0,0E0,0E0,0E0,0E0,0E0,0E0,0E0,0E0,0E0,0E0,0E0],"parents":[2147483647,0,0,1,1,2,2,3,3,4,4,5,5,6,6,7,7,8,8,9,9,10,10,11,11,12,12,13,13,14,14,15,15,16,16,17,17,18,18,19,19,20,20,21,21,22,22,23,23,24,24,25,25,26,26,27,27,28,28,29,29,30,30,31,31,32,32,33,33,34,34,35,35,36,36,37,37,38,38,39,39,40,40,41,41,42,42,43,43,45,45,47,47,48,48,49,49,50,50,55,55,56,56,57,57,58,58,59,59,60,60,61,61,62,62],"right_children":[2,4,6,8,10,12,14,16,18,20,22,24,26,28,30,32,34,36,38,40,42,44,46,48,50,52,54,56,58,60,62,64,66,68,70,72,74,76,78,80,82,84,86,88,-1,90,-1,92,94,96,98,-1,-1,-1,-1,100,102,104,106,108,110,112,114,-1,-1,-1,-1,-1,-1,-1,-1,-1,-1,-1,-1,-1,-1,-1,-1,-1,-1,-1,-1,-1,-1,-1,-1,-1,-1,-1,-1,-1,-1,-1,-1,-1,-1,-1,-1,-1,-1,-1,-1,-1,-1,-1,-1,-1,-1,-1,-1,-1,-1,-1,-1],"split_conditions":[2.4754839E2,2.7553524E1,1.2287555E1,2.0768583E1,1.2000002E1,1.224E1,2.4192429E1,8.926917E0,3E-1,8.7E0,2.2376671E2,9.468583E0,2.8710275E2,1.1381084E1,2.4967499E1,1E-1,1.0454E1,2.2203997E1,1.0931203E1,1.2859091E2,1.5865948E2,4.5192593E1,2.451028E2,7.8581676E0,1E-1,2.5208739E2,1.4416499E1,1.11665E1,1.778525E1,5.8352504E0,-3.835E-1,1.7290001E0,1.1841756E1,9.318544E1,1.1100119E2,1.6614946E2,2.1892027E1,1.0390226E1,2.318579E1,7.0992935E1,1.5682614E2,2.879325E1,1.8466266E2,2.176712E1,-2.1495008E0,1.0454E1,-1.327205E0,2.5489877E2,2.5586084E2,2.5489877E2,2.6986023E2,1.1685171E0,5.2080216E0,-2.4869873E-1,-1.1893613E0,9.937332E0,2.6262418E2,3.7999997E0,2.730441E2,3.0365646E2,2.4845891E2,3.2910165E2,2.7581666E0,-4.7155064E-2,1.1412517E0,9.9777395E-1,-1.3865733E-2,-2.1311417E0,-3.108958E-1,4.4304734E-1,-8.5392535E-2,3.5754818E-1,-1.1938668E0,1.2088583E0,-2.1757646E0,7.851477E-2,-2.1928372E0,2.2074497E0,-3.583896E-1,-8.393759E-1,-3.1839082E0,3.8682601E0,-3.9407757E-1,-3.6750832E-1,4.686061E0,-2.6425753E0,9.398741E-1,-1.4896045E0,8.096943E-2,-5.4573745E-1,1.7127657E-1,-1.9211515E0,7.343162E-1,6.0009513E0,2.0718765E0,9.5464236E-1,-1.8139296E0,-5.780397E-1,1.0219635E0,-1.7854485E-1,8.221237E-1,5.6443995E-1,5.4454618E0,-7.271499E-1,3.9341234E-2,6.1251795E-1,-2.883687E-1,-2.9121676E-1,-1.81212E0,6.1942294E-2,-1.7698522E0,-5.6553316E-1,-1.8207935E0,1.9210182E-1,-6.273488E-1],"split_indices":[3,2,2,0,1,2,2,0,1,1,3,0,3,0,2,1,0,0,2,3,3,3,3,0,1,3,0,0,0,0,0,0,2,3,3,3,2,2,2,3,3,2,3,3,0,0,0,3,3,3,3,0,0,0,0,0,3,1,3,3,3,3,0,0,0,0,0,0,0,0,0,0,0,0,0,0,0,0,0,0,0,0,0,0,0,0,0,0,0,0,0,0,0,0,0,0,0,0,0,0,0,0,0,0,0,0,0,0,0,0,0,0,0,0,0],"split_type":[0,0,0,0,0,0,0,0,0,0,0,0,0,0,0,0,0,0,0,0,0,0,0,0,0,0,0,0,0,0,0,0,0,0,0,0,0,0,0,0,0,0,0,0,0,0,0,0,0,0,0,0,0,0,0,0,0,0,0,0,0,0,0,0,0,0,0,0,0,0,0,0,0,0,0,0,0,0,0,0,0,0,0,0,0,0,0,0,0,0,0,0,0,0,0,0,0,0,0,0,0,0,0,0,0,0,0,0,0,0,0,0,0,0,0],"sum_hessian":[5.368E3,3.481E3,1.887E3,3.176E3,3.05E2,1.5E2,1.737E3,3.033E3,1.43E2,2.77E2,2.8E1,1.43E2,7E0,1.3E3,4.37E2,1.626E3,1.407E3,8.7E1,5.6E1,2.53E2,2.4E1,2.1E1,7E0,8.3E1,6E1,5E0,2E0,8.78E2,4.22E2,4.6E1,3.91E2,5.94E2,1.032E3,1.59E2,1.248E3,4.2E1,4.5E1,5E0,5.1E1,3.4E1,2.19E2,7E0,1.7E1,6E0,1.5E1,5E0,2E0,7.5E1,8E0,2.5E1,3.5E1,1E0,4E0,1E0,1E0,8.7E2,8E0,3.15E2,1.07E2,2.9E1,1.7E1,4.3E1,3.48E2,2.15E2,3.79E2,9.3E1,9.39E2,3.4E1,1.25E2,3.47E2,9.01E2,2.3E1,1.9E1,4.3E1,2E0,3E0,2E0,4.7E1,4E0,2.5E1,9E0,6E0,2.13E2,2E0,5E0,3E0,1.4E1,4E0,2E0,3E0,2E0,8E0,6.7E1,2E0,6E0,2E0,2.3E1,1.4E1,2.1E1,8.23E2,4.7E1,2E0,6E0,2.8E2,3.5E1,5.2E1,5.5E1,1.9E1,1E1,1E0,1.6E1,2.6E1,1.7E1,8.4E1,2.64E2],"tree_param":{"num_deleted":"0","num_feature":"4","num_nodes":"115","size_leaf_vector":"1"}},{"base_weights":[1.1921981E-2,-6.477916E-2,2.3580046E0,7.308011E-2,-1.2424085E0,1.1372185E0,3.8176913E0,3.5054943E-1,-5.069474E-1,-1.472446E0,1.1701144E0,-1.0155402E0,3.221436E0,-1.8642076E0,4.238159E0,4.6357352E-1,-1.1945169E0,-1.7319693E-1,-1.4025093E0,-3.1131554E0,-1.2145756E0,-1.2948565E0,4.685817E0,3.5413742E0,-1.6423485E0,6.4168754E0,1.2621024E0,-2.5419564E0,2.2868043E-1,1.3226233E-1,4.7493296E0,8.8348365E-1,-4.623727E-2,-4.4601216E0,1.8833315E-1,1.6270844E0,-4.420235E-1,-2.5984597E0,-5.580356E-1,-1.5303417E0,-8.4982195E0,4.724383E0,-1.3377739E0,-8.463769E0,-1.4214475E-1,1.2701599E1,1.888021E0,4.0678697E0,1.3633461E-1,-5.6108246E0,-5.435651E-1,9.828056E0,3.352664E0,-4.5298905E0,2.5501738E0,-1.0014201E0,9.637299E-2,-1.914971E0,1.4595158E0,6.7226114E0,3.6292944E0,8.656489E-3,4.5393914E-1,-2.6942039E-2,5.763715E0,-2.9167624E0,-4.4163826E-1,1.2648661E0,-3.8635287E-1,2.375987E-1,1.5085883E0,-2.917672E-2,-4.6702474E-1,-1.6772666E0,-7.002385E-1,2.9973245E0,-2.3347089E-1,-9.982639E-1,2.2877154E0,-2.6365762E0,-6.649607E-1,3.1849358E0,-6.337688E-1,-1.935999E0,-3.7839824E-1,-7.062876E-1,-2.9146492E0,1.280728E0,-2.709409E-1,5.1014233E0,-6.766467E-1,3.2291803E0,-2.9647848E-1,1.4735237E0,5.604111E-1,-2.5818028E0,8.539739E-2,-3.778645E-1,1.1583142E0,7.646107E-1,3.5489175E0,-6.949209E-1,3.1856477E0,4.6616367E-1,-2.3880737E0,-9.019951E-2,2.3905497E0,2.4827409E-1,-1.75427E0,-9.071016E-2,2.3543198E0,2.5192881E-2,1.6576719E0],"categories":[],"categories_nodes":[],"categories_segments":[],"categories_sizes":[],"default_left":[0,0,0,0,0,0,0,0,0,0,0,0,0,0,0,0,0,0,0,0,0,0,0,0,0,0,0,0,0,0,0,0,0,0,0,0,0,0,0,0,0,0,0,0,0,0,0,0,0,0,0,0,0,0,0,0,0,0,0,0,0,0,0,0,0,0,0,0,0,0,0,0,0,0,0,0,0,0,0,0,0,0,0,0,0,0,0,0,0,0,0,0,0,0,0,0,0,0,0,0,0,0,0,0,0,0,0,0,0,0,0,0,0],"id":7,"left_children":[1,3,5,7,9,11,13,15,17,19,21,23,25,27,29,31,33,35,37,39,41,43,45,47,49,51,53,55,-1,57,59,61,63,65,67,69,71,73,75,77,79,81,83,85,87,89,91,93,-1,95,97,99,101,103,105,-1,-1,107,-1,109,111,-1,-1,-1,-1,-1,-1,-1,-1,-1,-1,-1,-1,-1,-1,-1,-1,-1,-1,-1,-1,-1,-1,-1,-1,-1,-1,-1,-1,-1,-1,-1,-1,-1,-1,-1,-1,-1,-1,-1,-1,-1,-1,-1,-1,-1,-1,-1,-1,-1,-1,-1,-1],"loss_changes":[9.662893E2,8.4429584E2,2.9859253E2,7.4951355E2,3.04182E2,4.250323E2,1.9185815E2,5.506373E2,4.501906E2,2.0691772E2,4.2204044E2,1.400628E2,2.9242596E2,1.2618195E1,1.5048645E2,6.2856415E2,9.71746E2,5.3259503E2,4.1161908E2,5.580729E2,3.2240125E2,2.3844391E2,4.245496E2,7.90287E0,1.8009097E2,1.5519629E2,2.4282751E2,1.2469452E1,0E0,9.651857E1,1.17051025E2,8.663203E2,1.1151963E3,9.920281E2,9.0920215E2,4.0222177E2,3.676443E2,1.2062793E2,5.675996E2,8.975063E2,7.8797607E0,3.849817E2,1.5767249E2,7.716522E0,9.113536E1,3.6016656E2,4.1911176E2,1.0662079E-1,0E0,1.6137231E2,1.12086555E2,8.641638E1,4.7771338E2,1.3758618E2,4.0401187E2,0E0,0E0,8.033673E1,0E0,1.7625989E2,2.8862103E2,0E0,0E0,0E0,0E0,0E0,0E0,0E0,0E0,0E0,0E0,0E0,0E0,0E0,0E0,0E0,0E0,0E0,0E0,0E0,0E0,0E0,0E0,0E0,0E0,0E0,0E0,0E0,0E0,0E0,0E0,0E0,0E0,0E0,0E0,0E0,0E0,0E0,0E0,0E0,0E0,0E0,0E0,0E0,0E0,0E0,0E0,0E0,0E0,0E0,0E0,0E0,0E0],"parents":[2147483647,0,0,1,1,2,2,3,3,4,4,5,5,6,6,7,7,8,8,9,9,10,10,11,11,12,12,13,13,14,14,15,15,16,16,17,17,18,18,19,19,20,20,21,21,22,22,23,23,24,24,25,25,26,26,27,27,29,29,30,30,31,31,32,32,33,33,34,34,35,35,36,36,37,37,38,38,39,39,40,40,41,41,42,42,43,43,44,44,45,45,46,46,47,47,49,49,50,50,51,51,52,52,53,53,54,54,57,57,59,59,60,60],"right_children":[2,4,6,8,10,12,14,16,18,20,22,24,26,28,30,32,34,36,38,40,42,44,46,48,50,52,54,56,-1,58,60,62,64,66,68,70,72,74,76,78,80,82,84,86,88,90,92,94,-1,96,98,100,102,104,106,-1,-1,108,-1,110,112,-1,-1,-1,-1,-1,-1,-1,-1,-1,-1,-1,-1,-1,-1,-1,-1,-1,-1,-1,-1,-1,-1,-1,-1,-1,-1,-1,-1,-1,-1,-1,-1,-1,-1,-1,-1,-1,-1,-1,-1,-1,-1,-1,-1,-1,-1,-1,-1,-1,-1,-1,-1],"split_conditions":[2.0768583E1,2.7553524E1,1E-1,2.5274849E2,1.5785248E1,1.5137133E1,7.491044E1,7.1999993E0,1.2274833E1,1.872901E2,2.2999997E0,8.461081E1,1.45329E2,2.2697752E1,1.0931203E1,9.124833E0,8.7E0,1.3324863E1,1.57165E1,1.5865948E2,1.9178163E2,1.6880568E2,1.6018583E1,1.370839E1,1.1290185E2,1.6808569E1,1.7327095E2,5.3891533E1,2.2868043E-1,2.4308168E1,6E-1,2.2665E0,2.741678E1,1.1477511E2,1.6215992E1,4E-1,1E0,1.2806084E1,1.5785248E1,1.4888808E2,1.34E1,3.6727502E0,1.941133E2,1.698942E1,2.0702194E2,9.5E0,3.5E0,2.2697752E1,1.3633461E-1,2.2697752E1,2.59492E2,6.2949455E1,1.04969894E2,1.8374111E1,2.2697752E1,-1.0014201E0,9.637299E-2,1.0390226E1,1.4595158E0,9.318544E1,1.2000002E0,8.656489E-3,4.5393914E-1,-2.6942039E-2,5.763715E0,-2.9167624E0,-4.4163826E-1,1.2648661E0,-3.8635287E-1,2.375987E-1,1.5085883E0,-2.917672E-2,-4.6702474E-1,-1.6772666E0,-7.002385E-1,2.9973245E0,-2.3347089E-1,-9.982639E-1,2.2877154E0,-2.6365762E0,-6.649607E-1,3.1849358E0,-6.337688E-1,-1.935999E0,-3.7839824E-1,-7.062876E-1,-2.9146492E0,1.280728E0,-2.709409E-1,5.1014233E0,-6.766467E-1,3.2291803E0,-2.9647848E-1,1.4735237E0,5.604111E-1,-2.5818028E0,8.539739E-2,-3.778645E-1,1.1583142E0,7.646107E-1,3.5489175E0,-6.949209E-1,3.1856477E0,4.6616367E-1,-2.3880737E0,-9.019951E-2,2.3905497E0,2.4827409E-1,-1.75427E0,-9.071016E-2,2.3543198E0,2.5192881E-2,1.6576719E0],"split_indices":[0,2,1,3,0,2,3,1,0,3,1,3,3,0,2,0,1,2,0,3,3,3,0,2,3,2,3,3,0,0,1,0,2,3,2,1,1,0,0,3,1,0,3,0,3,1,1,0,0,0,3,3,3,2,0,0,0,2,0,3,1,0,0,0,0,0,0,0,0,0,0,0,0,0,0,0,0,0,0,0,0,0,0,0,0,0,0,0,0,0,0,0,0,0,0,0,0,0,0,0,0,0,0,0,0,0,0,0,0,0,0,0,0],"split_type":[0,0,0,0,0,0,0,0,0,0,0,0,0,0,0,0,0,0,0,0,0,0,0,0,0,0,0,0,0,0,0,0,0,0,0,0,0,0,0,0,0,0,0,0,0,0,0,0,0,0,0,0,0,0,0,0,0,0,0,0,0,0,0,0,0,0,0,0,0,0,0,0,0,0,0,0,0,0,0,0,0,0,0,0,0,0,0,0,0,0,0,0,0,0,0,0,0,0,0,0,0,0,0,0,0,0,0,0,0,0,0,0,0],"sum_hessian":[5.368E3,5.199E3,1.69E2,4.655E3,5.44E2,9.3E1,7.6E1,3.149E3,1.506E3,4.97E2,4.7E1,4.6E1,4.7E1,5E0,7.1E1,2.935E3,2.14E2,1.098E3,4.08E2,6.6E1,4.31E2,2.8E1,1.9E1,5E0,4.1E1,1.7E1,3E1,4E0,1E0,8E0,6.3E1,1.609E3,1.326E3,6.3E1,1.51E2,1.42E2,9.56E2,1.68E2,2.4E2,5.2E1,1.4E1,8E0,4.23E2,3E0,2.5E1,4E0,1.5E1,4E0,1E0,8E0,3.3E1,7E0,1E1,5E0,2.5E1,3E0,1E0,6E0,2E0,2.1E1,4.2E1,6.83E2,9.26E2,1.324E3,2E0,2.2E1,4.1E1,4E1,1.11E2,1.15E2,2.7E1,7.31E2,2.25E2,1.2E1,1.56E2,4E0,2.36E2,4.4E1,8E0,1.3E1,1E0,4E0,4E0,5E0,4.18E2,1E0,2E0,3E0,2.2E1,3E0,1E0,3E0,1.2E1,2E0,2E0,5E0,3E0,2.9E1,4E0,2E0,5E0,6E0,4E0,2E0,3E0,1.7E1,8E0,4E0,2E0,3E0,1.8E1,1.5E1,2.7E1],"tree_param":{"num_deleted":"0","num_feature":"4","num_nodes":"113","size_leaf_vector":"1"}},{"base_weights":[1.1919252E-2,5.1066506E-1,-2.1456562E-1,7.497522E0,4.2180887E-1,1.8249992E-1,-4.8049533E-1,3.820537E0,5.5499296E0,-2.7414638E-1,1.2762192E0,3.353684E-1,-1.7850657E0,-5.714551E-1,2.0153978E0,6.9334445E0,-1.6169652E0,-5.5348307E-1,1.6334163E0,5.349998E0,8.980312E-1,2.183186E0,9.90089E-2,-6.2165494E0,-8.7893486E-1,1.4591222E0,-6.522418E-1,1.5692341E0,2.464662E0,8.78403E0,-1.7358614E0,-1.5988336E0,2.4997559E0,6.375323E-1,-1.2092013E0,4.3372855E0,-4.491321E-1,2.4381766E0,2.0538832E1,2.24182E0,-3.6813986E-1,-3.6708194E-1,6.619039E0,4.8427397E-1,-3.7816727E-1,-2.3349426E0,-1.7861744E0,-2.335106E0,1.3701859E0,7.242942E0,3.641397E-1,-1.3622761E0,-3.8058636E-1,-1.7536524E-1,2.575182E0,7.7755475E-1,3.7440526E0,1.0654585E0,-9.833422E-2,-9.941246E-1,3.78409E-1,-1.8930643E0,-3.1936E-1,-1.5717413E-1,2.1014175E0,-4.597703E-1,1.5617592E0,1.8311422E-1,4.386997E0,1.1570013E0,1.3379373E1,8.5452044E-1,-1.181747E0,-2.7727276E-1,2.2880192E0,-1.4760652E0,7.155241E-1,-2.2429128E0,2.825306E0,3.24454E-1,-1.4085096E-1,-5.0614727E-1,-4.000646E-3,1.074862E-1,-1.2150197E0,-8.7641567E-1,1.7610915E0,2.2964874E-1,2.3299835E0,-2.0739977E-1,3.686484E0,-3.0913098E0,2.488362E-1,-3.2544404E-1,-1.5293972E0,1.3430474E0,-1.3697588E-1,2.2240512E0,-6.442337E-1,1.8387045E0,5.0671095E-1],"categories":[],"categories_nodes":[],"categories_segments":[],"categories_sizes":[],"default_left":[0,0,0,0,0,0,0,0,0,0,0,0,0,0,0,0,0,0,0,0,0,0,0,0,0,0,0,0,0,0,0,0,0,0,0,0,0,0,0,0,0,0,0,0,0,0,0,0,0,0,0,0,0,0,0,0,0,0,0,0,0,0,0,0,0,0,0,0,0,0,0,0,0,0,0,0,0,0,0,0,0,0,0,0,0,0,0,0,0,0,0,0,0,0,0,0,0,0,0,0,0],"id":8,"left_children":[1,3,5,7,9,11,13,15,-1,17,19,21,23,25,27,29,31,33,35,37,39,41,43,45,47,49,51,53,-1,55,-1,-1,57,59,61,63,65,67,69,71,73,75,77,79,81,-1,83,85,87,89,91,93,95,97,99,-1,-1,-1,-1,-1,-1,-1,-1,-1,-1,-1,-1,-1,-1,-1,-1,-1,-1,-1,-1,-1,-1,-1,-1,-1,-1,-1,-1,-1,-1,-1,-1,-1,-1,-1,-1,-1,-1,-1,-1,-1,-1,-1,-1,-1,-1],"loss_changes":[6.0658307E2,1.0379614E3,3.9003717E2,7.7887744E2,9.8565393E2,4.4635272E2,5.03333E2,2.9896063E2,0E0,4.8793097E2,1.1414425E3,6.007508E2,4.2419504E2,3.5118494E2,2.028775E2,3.0975293E2,1.2030502E2,6.239852E2,6.607678E2,2.7362346E3,1.1612256E3,1.7671975E3,2.2465092E2,1.11028625E2,2.9795895E2,5.166835E2,3.9566656E2,1.3031982E2,0E0,1.9652533E2,0E0,0E0,1.3059826E1,7.0422034E2,3.7332886E2,6.649845E2,4.184755E2,1.1937603E3,3.8415737E3,1.2522263E3,1.5720299E3,1.2648318E3,2.3189521E3,3.8557983E2,2.6072595E2,0E0,3.058005E1,2.8173596E2,1.3329749E2,5.2889954E2,3.560416E2,5.832135E2,5.50989E2,4.3496417E2,1.3766089E2,0E0,0E0,0E0,0E0,0E0,0E0,0E0,0E0,0E0,0E0,0E0,0E0,0E0,0E0,0E0,0E0,0E0,0E0,0E0,0E0,0E0,0E0,0E0,0E0,0E0,0E0,0E0,0E0,0E0,0E0,0E0,0E0,0E0,0E0,0E0,0E0,0E0,0E0,0E0,0E0,0E0,0E0,0E0,0E0,0E0,0E0],"parents":[2147483647,0,0,1,1,2,2,3,3,4,4,5,5,6,6,7,7,9,9,10,10,11,11,12,12,13,13,14,14,15,15,16,16,17,17,18,18,19,19,20,20,21,21,22,22,23,23,24,24,25,25,26,26,27,27,29,29,32,32,33,33,34,34,35,35,36,36,37,37,38,38,39,39,40,40,41,41,42,42,43,43,44,44,46,46,47,47,48,48,49,49,50,50,51,51,52,52,53,53,54,54],"right_children":[2,4,6,8,10,12,14,16,-1,18,20,22,24,26,28,30,32,34,36,38,40,42,44,46,48,50,52,54,-1,56,-1,-1,58,60,62,64,66,68,70,72,74,76,78,80,82,-1,84,86,88,90,92,94,96,98,100,-1,-1,-1,-1,-1,-1,-1,-1,-1,-1,-1,-1,-1,-1,-1,-1,-1,-1,-1,-1,-1,-1,-1,-1,-1,-1,-1,-1,-1,-1,-1,-1,-1,-1,-1,-1,-1,-1,-1,-1,-1,-1,-1,-1,-1,-1],"split_conditions":[1.6755594E2,8.217153E0,1E-1,1.411322E2,9.728057E1,1.9264418E1,1.95665E1,9.728057E1,5.5499296E0,1.7064417E1,1.04969894E2,2.0209718E2,1.9712336E1,1.1480557E1,7.3999996E0,7.618584E0,7.6998334E0,1.3602499E0,1.420062E1,1.8947083E1,8.316501E0,1.9178163E2,2.717583E2,2.4433014E2,2.2891165E2,-1.9391637E-1,1.7227419E1,2.081961E2,2.464662E0,4.5192593E1,-1.7358614E0,-1.5988336E0,1.6E0,-4.8543334E0,9.504273E0,5.210664E1,8.6423706E1,1.8000001E0,1.1083167E1,2.3762726E1,2.443761E1,7.618584E0,1.1227499E0,1.9803272E1,2.854507E2,-2.3349426E0,1.95665E1,2.4066206E1,2.2697752E1,4E-1,1.6880568E2,1.693531E1,1.7189687E2,2.0404001E1,2.1506967E2,7.7755475E-1,3.7440526E0,1.0654585E0,-9.833422E-2,-9.941246E-1,3.78409E-1,-1.8930643E0,-3.1936E-1,-1.5717413E-1,2.1014175E0,-4.597703E-1,1.5617592E0,1.8311422E-1,4.386997E0,1.1570013E0,1.3379373E1,8.5452044E-1,-1.181747E0,-2.7727276E-1,2.2880192E0,-1.4760652E0,7.155241E-1,-2.2429128E0,2.825306E0,3.24454E-1,-1.4085096E-1,-5.0614727E-1,-4.000646E-3,1.074862E-1,-1.2150197E0,-8.7641567E-1,1.7610915E0,2.2964874E-1,2.3299835E0,-2.0739977E-1,3.686484E0,-3.0913098E0,2.488362E-1,-3.2544404E-1,-1.5293972E0,1.3430474E0,-1.3697588E-1,2.2240512E0,-6.442337E-1,1.8387045E0,5.0671095E-1],"split_indices":[3,2,1,3,3,0,0,3,0,0,3,3,0,2,1,0,0,0,2,2,0,3,3,3,3,0,2,3,0,3,0,0,1,0,2,3,3,1,0,2,2,0,0,2,3,0,0,2,0,1,3,2,3,0,3,0,0,0,0,0,0,0,0,0,0,0,0,0,0,0,0,0,0,0,0,0,0,0,0,0,0,0,0,0,0,0,0,0,0,0,0,0,0,0,0,0,0,0,0,0,0],"split_type":[0,0,0,0,0,0,0,0,0,0,0,0,0,0,0,0,0,0,0,0,0,0,0,0,0,0,0,0,0,0,0,0,0,0,0,0,0,0,0,0,0,0,0,0,0,0,0,0,0,0,0,0,0,0,0,0,0,0,0,0,0,0,0,0,0,0,0,0,0,0,0,0,0,0,0,0,0,0,0,0,0,0,0,0,0,0,0,0,0,0,0,0,0,0,0,0,0,0,0,0,0],"sum_hessian":[5.368E3,1.676E3,3.692E3,2E1,1.656E3,1.481E3,2.211E3,1.6E1,4E0,9.13E2,7.43E2,1.375E3,1.06E2,2.134E3,7.7E1,1E1,6E0,7.97E2,1.16E2,6.2E1,6.81E2,1.55E2,1.22E3,1.7E1,8.9E1,8.1E1,2.053E3,7.3E1,4E0,9E0,1E0,3E0,3E0,2.83E2,5.14E2,5E1,6.6E1,5.3E1,9E0,3.3E2,3.51E2,9.9E1,5.6E1,6.75E2,5.45E2,1.2E1,5E0,5.4E1,3.5E1,1.2E1,6.9E1,5.67E2,1.486E3,2.7E1,4.6E1,4E0,5E0,2E0,1E0,3.8E1,2.45E2,1.3E1,5.01E2,1.8E1,3.2E1,5.6E1,1E1,4.7E1,6E0,6E0,3E0,3.01E2,2.9E1,3.29E2,2.2E1,3.7E1,6.2E1,9E0,4.7E1,4.15E2,2.6E2,1.18E2,4.27E2,3E0,2E0,5.1E1,3E0,3.3E1,2E0,5E0,7E0,2E0,6.7E1,5.29E2,3.8E1,2.2E1,1.464E3,5E0,2.2E1,8E0,3.8E1],"tree_param":{"num_deleted":"0","num_feature":"4","num_nodes":"101","size_leaf_vector":"1"}},{"base_weights":[1.4785505E-2,-4.071671E-2,1.7124134E0,2.9331464E-2,-1.1234528E0,-4.9542698E-1,2.061228E0,8.3795625E-1,-4.910483E-2,-1.3465124E0,2.4341893E0,-2.587638E0,9.3240875E-1,3.1525536E0,9.715214E-1,3.5740478E0,2.2499248E-1,-8.7789506E-1,8.565128E-2,-3.4339345E0,-1.0001379E0,5.822721E0,4.128589E-1,4.2705405E-1,-3.768365E0,1.1319935E0,-9.225956E-2,9.474532E-1,6.2816157E0,-4.712049E0,1.6258897E0,2.3528502E0,1.2810823E1,-9.6680313E-1,2.7102616E0,-5.10946E-1,-4.3125844E0,2.2948936E-1,-1.0710225E0,-1.3941386E0,-6.3516264E0,2.4126503E0,-1.0668741E0,5.4272327E0,-1.4074789E0,5.621355E-1,-4.84207E0,-1.5158346E0,3.1338491E0,2.9179044E0,-2.6832051E0,1.2786843E1,4.122524E0,-1.7899079E0,6.10219E-1,7.738064E-1,5.537794E0,1.0820105E0,-7.7059245E-1,5.7789335E0,1.138911E0,-5.9599E-1,4.6149224E-1,-1.2700524E0,9.598561E-1,-4.4849157E-1,1.4988002E-1,-1.8141862E0,-7.53001E-2,1.967975E-1,-4.3368008E-2,-4.8110074E-1,2.5259545E-1,-1.0170628E0,1.9588048E-2,-2.0975914E0,-3.09808E-1,-9.7503644E-1,-2.4810357E-1,3.5736752E-1,1.8565288E0,3.7908927E-2,-1.2581002E0,-1.7070464E0,3.6965847E-2,1.6456948E-1,-1.2700427E0,1.1099706E0,2.1535379E-1,5.165378E-1,3.8130825E0,-2.2763631E0,7.0799395E-2,4.234411E0,7.2295475E-1,1.8645557E0,6.551471E-1,-1.4434206E-1,7.1981514E-1,2.550799E0,6.616094E-1],"categories":[],"categories_nodes":[],"categories_segments":[],"categories_sizes":[],"default_left":[0,0,0,0,0,0,0,0,0,0,0,0,0,0,0,0,0,0,0,0,0,0,0,0,0,0,0,0,0,0,0,0,0,0,0,0,0,0,0,0,0,0,0,0,0,0,0,0,0,0,0,0,0,0,0,0,0,0,0,0,0,0,0,0,0,0,0,0,0,0,0,0,0,0,0,0,0,0,0,0,0,0,0,0,0,0,0,0,0,0,0,0,0,0,0,0,0,0,0,0,0],"id":9,"left_children":[1,3,5,7,9,11,13,15,17,19,21,23,25,27,29,31,33,35,37,39,41,-1,43,-1,45,-1,47,49,51,53,55,57,59,61,63,65,67,69,71,73,75,-1,77,79,81,-1,83,85,87,89,91,93,95,-1,-1,97,99,-1,-1,-1,-1,-1,-1,-1,-1,-1,-1,-1,-1,-1,-1,-1,-1,-1,-1,-1,-1,-1,-1,-1,-1,-1,-1,-1,-1,-1,-1,-1,-1,-1,-1,-1,-1,-1,-1,-1,-1,-1,-1,-1,-1],"loss_changes":[5.0594818E2,3.9442014E2,1.3194281E2,3.0987488E2,2.5404453E2,7.410874E1,1.717533E2,7.2371387E2,4.9751813E2,2.1202844E2,6.439118E2,5.2725067E1,4.4012875E1,4.977409E2,2.8659738E2,8.6097235E2,1.0511445E3,7.829983E2,6.3778986E2,2.4110776E2,1.6366647E2,0E0,1.719401E2,0E0,5.753704E1,0E0,5.986169E1,3.2260687E2,3.6864746E2,7.982973E1,2.2237708E2,4.4739246E2,4.5034473E2,6.162049E2,4.0423444E2,5.6159045E2,4.2122058E2,5.439426E2,4.3338788E2,7.596274E1,5.0680603E1,0E0,1.3137387E2,8.750336E0,6.035994E1,0E0,3.017804E1,5.2815E1,2.8143768E0,3.1778586E2,2.3087442E2,6.243994E1,8.37962E1,0E0,0E0,1.17435165E2,9.98111E1,0E0,0E0,0E0,0E0,0E0,0E0,0E0,0E0,0E0,0E0,0E0,0E0,0E0,0E0,0E0,0E0,0E0,0E0,0E0,0E0,0E0,0E0,0E0,0E0,0E0,0E0,0E0,0E0,0E0,0E0,0E0,0E0,0E0,0E0,0E0,0E0,0E0,0E0,0E0,0E0,0E0,0E0,0E0,0E0],"parents":[2147483647,0,0,1,1,2,2,3,3,4,4,5,5,6,6,7,7,8,8,9,9,10,10,11,11,12,12,13,13,14,14,15,15,16,16,17,17,18,18,19,19,20,20,22,22,24,24,26,26,27,27,28,28,29,29,30,30,31,31,32,32,33,33,34,34,35,35,36,36,37,37,38,38,39,39,40,40,42,42,43,43,44,44,46,46,47,47,48,48,49,49,50,50,51,51,52,52,55,55,56,56],"right_children":[2,4,6,8,10,12,14,16,18,20,22,24,26,28,30,32,34,36,38,40,42,-1,44,-1,46,-1,48,50,52,54,56,58,60,62,64,66,68,70,72,74,76,-1,78,80,82,-1,84,86,88,90,92,94,96,-1,-1,98,100,-1,-1,-1,-1,-1,-1,-1,-1,-1,-1,-1,-1,-1,-1,-1,-1,-1,-1,-1,-1,-1,-1,-1,-1,-1,-1,-1,-1,-1,-1,-1,-1,-1,-1,-1,-1,-1,-1,-1,-1,-1,-1,-1,-1],"split_conditions":[2.0768583E1,3.0027107E1,1.224E1,-1.4897498E0,1.5929002E1,1E-1,1.6614946E2,1.191812E1,1.5956669E0,1.941133E2,1.6018583E1,1.0644379E1,3E-1,1.245525E2,1.7653183E2,1.1753877E1,-2.5814164E0,1.3602499E0,3.0365646E2,2.2123332E0,1.9554315E2,5.822721E0,7.0000005E-1,4.2705405E-1,1.9846392E0,1.1319935E0,1.7000002E0,1.02207306E2,2.1416498E1,6.5999994E0,2.0948164E1,1.1212135E1,1E-1,3.099759E2,1.2313894E1,4E-1,2.1707731E1,9.468583E0,1.5333165E1,-6.168334E-1,1.4500002E1,2.4126503E0,4.873334E-1,1E-1,2.451028E2,5.621355E-1,2.2697752E1,1.0644379E1,2.2697752E1,9.728057E1,1.1100119E2,1.858451E1,1.420062E1,-1.7899079E0,6.10219E-1,2.180509E2,2.318579E1,1.0820105E0,-7.7059245E-1,5.7789335E0,1.138911E0,-5.9599E-1,4.6149224E-1,-1.2700524E0,9.598561E-1,-4.4849157E-1,1.4988002E-1,-1.8141862E0,-7.53001E-2,1.967975E-1,-4.3368008E-2,-4.8110074E-1,2.5259545E-1,-1.0170628E0,1.9588048E-2,-2.0975914E0,-3.09808E-1,-9.7503644E-1,-2.4810357E-1,3.5736752E-1,1.8565288E0,3.7908927E-2,-1.2581002E0,-1.7070464E0,3.6965847E-2,1.6456948E-1,-1.2700427E0,1.1099706E0,2.1535379E-1,5.165378E-1,3.8130825E0,-2.2763631E0,7.0799395E-2,4.234411E0,7.2295475E-1,1.8645557E0,6.551471E-1,-1.4434206E-1,7.1981514E-1,2.550799E0,6.616094E-1],"split_indices":[0,2,2,0,0,1,3,2,0,3,0,2,1,3,3,2,0,0,3,0,3,0,1,0,3,0,1,3,0,1,2,2,1,3,2,1,2,0,0,0,1,0,0,1,3,0,0,2,0,3,3,2,2,0,0,3,2,0,0,0,0,0,0,0,0,0,0,0,0,0,0,0,0,0,0,0,0,0,0,0,0,0,0,0,0,0,0,0,0,0,0,0,0,0,0,0,0,0,0,0,0],"split_type":[0,0,0,0,0,0,0,0,0,0,0,0,0,0,0,0,0,0,0,0,0,0,0,0,0,0,0,0,0,0,0,0,0,0,0,0,0,0,0,0,0,0,0,0,0,0,0,0,0,0,0,0,0,0,0,0,0,0,0,0,0,0,0,0,0,0,0,0,0,0,0,0,0,0,0,0,0,0,0,0,0,0,0,0,0,0,0,0,0,0,0,0,0,0,0,0,0,0,0,0,0],"sum_hessian":[5.368E3,5.199E3,1.69E2,4.884E3,3.15E2,2.3E1,1.46E2,4.31E2,4.453E3,2.97E2,1.8E1,9E0,1.4E1,7.2E1,7.4E1,7.8E1,3.53E2,6.22E2,3.831E3,4.1E1,2.56E2,1E0,1.7E1,2E0,7E0,3E0,1.1E1,4.3E1,2.9E1,7E0,6.7E1,7E1,8E0,2.39E2,1.14E2,5.63E2,5.9E1,3.408E3,4.23E2,2.5E1,1.6E1,1E0,2.55E2,4E0,1.3E1,1E0,6E0,8E0,3E0,2.8E1,1.5E1,6E0,2.3E1,6E0,1E0,5.6E1,1.1E1,5.6E1,1.4E1,4E0,4E0,1.7E2,6.9E1,7E0,1.07E2,2.85E2,2.78E2,4.1E1,1.8E1,1.592E3,1.816E3,3.31E2,9.2E1,1E1,1.5E1,1.4E1,2E0,2.4E1,2.31E2,1E0,3E0,9E0,4E0,5E0,1E0,5E0,3E0,2E0,1E0,2.6E1,2E0,5E0,1E1,5E0,1E0,1E1,1.3E1,3.2E1,2.4E1,5E0,6E0],"tree_param":{"num_deleted":"0","num_feature":"4","num_nodes":"101","size_leaf_vector":"1"}},{"base_weights":[1.4447741E-2,3.346846E-1,-2.0592728E-1,5.8733565E-1,-3.9429626E-1,-3.8413993E-1,7.067803E-1,4.7271767E-1,1.0800277E1,-1.5159203E0,1.3972425E-1,6.5295997E0,-4.048276E-1,4.866504E-1,3.5672152E0,-2.5286144E-1,7.714453E-1,1.6062754E1,-2.4018018E0,-4.455196E0,-3.385682E-2,2.382367E0,-7.270717E-1,-1.7291108E-1,7.6270766E0,-1.3379056E0,-2.2088891E-1,1.6495787E0,-2.5515854E-2,6.9478054E0,2.0578187E0,3.419991E-1,-2.2988164E0,1.8063504E0,2.3924406E-1,8.11615E0,8.146227E0,-3.296575E0,3.1080982E-1,1.4258815E0,-6.403936E0,3.9561093E0,-7.624674E-1,1.5305179E0,1.2732683E1,-5.4046392E0,-3.2225317E-1,3.0067751E0,3.3248014E0,4.1410783E-1,-2.4549708E0,1.4504685E0,-3.2985422E-1,-4.7547174E-1,2.441037E0,-4.1562014E0,5.606811E-1,2.4741836E0,7.8357273E-1,-7.5754995E0,3.577629E0,7.0621E-1,-3.79784E-2,-1.7103584E0,-2.642271E-1,1.3296787E0,-1.6171348E-3,-3.662953E-1,2.3711704E-1,3.7931447E0,-1.5461353E0,-1.2071646E0,-4.41123E-1,-3.3253008E-1,1.2296253E0,-7.039972E-1,-2.6785133E0,-1.7006265E-1,2.7133904E0,-4.6952707E-1,1.2312303E0,4.590253E0,3.2800797E-1,5.417102E0,8.6823326E-1,-1.7173442E0,1.9680348E-1,-2.195832E0,-5.464239E-2,1.1717732E0,2.3722115E-1,3.3176565E-1,-1.2256238E0,-6.576396E-1,-2.5117993E0,1.3112299E-1,2.42086E0,-2.061636E-1,-1.7130423E-2,9.065442E-1,-7.2023946E-1,1.4690139E0,4.1663834E-1,-3.17531E0,-5.4499155E-1,3.1804809E-4,5.404705E-1,-4.802164E-1,-2.7100558E0,3.4306047E0,5.7316726E-1],"categories":[],"categories_nodes":[],"categories_segments":[],"categories_sizes":[],"default_left":[0,0,0,0,0,0,0,0,0,0,0,0,0,0,0,0,0,0,0,0,0,0,0,0,0,0,0,0,0,0,0,0,0,0,0,0,0,0,0,0,0,0,0,0,0,0,0,0,0,0,0,0,0,0,0,0,0,0,0,0,0,0,0,0,0,0,0,0,0,0,0,0,0,0,0,0,0,0,0,0,0,0,0,0,0,0,0,0,0,0,0,0,0,0,0,0,0,0,0,0,0,0,0,0,0,0,0,0,0,0,0],"id":10,"left_children":[1,3,5,7,9,11,13,15,17,19,21,23,25,27,29,31,33,35,37,39,41,43,45,-1,47,49,51,53,55,57,59,61,63,65,67,69,-1,71,-1,73,75,77,79,81,83,85,87,-1,89,91,93,95,97,99,101,103,105,-1,-1,107,109,-1,-1,-1,-1,-1,-1,-1,-1,-1,-1,-1,-1,-1,-1,-1,-1,-1,-1,-1,-1,-1,-1,-1,-1,-1,-1,-1,-1,-1,-1,-1,-1,-1,-1,-1,-1,-1,-1,-1,-1,-1,-1,-1,-1,-1,-1,-1,-1,-1,-1],"loss_changes":[3.789711E2,4.0339667E2,5.1768036E2,1.8982682E3,3.38031E2,3.833871E2,3.2569095E2,3.489466E2,1.2891406E3,7.9267645E2,7.4625116E2,6.6785095E1,4.5537985E2,2.883186E2,1.7450076E2,5.7280347E2,6.2745447E2,9.254131E2,2.1871853E1,7.082333E2,3.5768646E2,9.2392145E2,5.227761E2,0E0,3.8819824E1,8.5627515E2,4.0460272E2,2.5008014E2,8.1834045E2,4.0437073E1,4.2240448E2,3.4442975E2,5.064048E2,1.8411653E3,6.0778357E2,6.058998E2,0E0,7.241554E-1,0E0,1.1292549E2,4.5019678E2,4.424183E2,4.1264917E2,5.852516E2,3.668109E2,4.6401123E1,2.4964641E2,0E0,2.8017235E0,5.367842E2,3.9693774E2,9.087212E2,2.0308896E2,2.8332486E2,2.7226788E2,6.12414E2,2.0554834E2,0E0,0E0,2.0385208E1,2.9253723E2,0E0,0E0,0E0,0E0,0E0,0E0,0E0,0E0,0E0,0E0,0E0,0E0,0E0,0E0,0E0,0E0,0E0,0E0,0E0,0E0,0E0,0E0,0E0,0E0,0E0,0E0,0E0,0E0,0E0,0E0,0E0,0E0,0E0,0E0,0E0,0E0,0E0,0E0,0E0,0E0,0E0,0E0,0E0,0E0,0E0,0E0,0E0,0E0,0E0,0E0],"parents":[2147483647,0,0,1,1,2,2,3,3,4,4,5,5,6,6,7,7,8,8,9,9,10,10,11,11,12,12,13,13,14,14,15,15,16,16,17,17,18,18,19,19,20,20,21,21,22,22,24,24,25,25,26,26,27,27,28,28,29,29,30,30,31,31,32,32,33,33,34,34,35,35,37,37,39,39,40,40,41,41,42,42,43,43,44,44,45,45,46,46,48,48,49,49,50,50,51,51,52,52,53,53,54,54,55,55,56,56,59,59,60,60],"right_children":[2,4,6,8,10,12,14,16,18,20,22,24,26,28,30,32,34,36,38,40,42,44,46,-1,48,50,52,54,56,58,60,62,64,66,68,70,-1,72,-1,74,76,78,80,82,84,86,88,-1,90,92,94,96,98,100,102,104,106,-1,-1,108,110,-1,-1,-1,-1,-1,-1,-1,-1,-1,-1,-1,-1,-1,-1,-1,-1,-1,-1,-1,-1,-1,-1,-1,-1,-1,-1,-1,-1,-1,-1,-1,-1,-1,-1,-1,-1,-1,-1,-1,-1,-1,-1,-1,-1,-1,-1,-1,-1,-1,-1],"split_conditions":[1E-1,1.5081084E1,1.6379E1,1.4885249E1,1.7064417E1,7.42159E0,9.8E0,1.7290001E0,1.9657883E2,1.2084738E2,1.4339896E2,4.5192593E1,1.4372974E1,1.7189687E2,1.3849477E1,7.144168E-1,5.2852497E0,1.4830076E1,1.7727943E1,1.2964998E1,1.6880568E2,1.3740263E2,1.1753877E1,-1.7291108E-1,9.728057E1,3.0894167E0,1.5459054E1,6.6789795E1,1.9275746E2,2.9264862E2,1.4799459E1,8.461081E1,1.4408997E1,2.2807243E2,1.411322E2,1.3410811E2,8.146227E0,1.2287555E1,3.1080982E-1,9.5149796E1,4.972019E1,1.4669485E2,3.151938E2,1.7143583E1,2.0768583E1,2.1083172E1,1.7143583E1,3.0067751E0,2.4810834E0,1.3849477E1,1.420062E1,1.52947035E1,4.004E0,3.6607166E1,1.1290185E2,1.5188415E1,1.7000002E0,2.4741836E0,7.8357273E-1,1.8206083E1,1.5844089E1,7.0621E-1,-3.79784E-2,-1.7103584E0,-2.642271E-1,1.3296787E0,-1.6171348E-3,-3.662953E-1,2.3711704E-1,3.7931447E0,-1.5461353E0,-1.2071646E0,-4.41123E-1,-3.3253008E-1,1.2296253E0,-7.039972E-1,-2.6785133E0,-1.7006265E-1,2.7133904E0,-4.6952707E-1,1.2312303E0,4.590253E0,3.2800797E-1,5.417102E0,8.6823326E-1,-1.7173442E0,1.9680348E-1,-2.195832E0,-5.464239E-2,1.1717732E0,2.3722115E-1,3.3176565E-1,-1.2256238E0,-6.576396E-1,-2.5117993E0,1.3112299E-1,2.42086E0,-2.061636E-1,-1.7130423E-2,9.065442E-1,-7.2023946E-1,1.4690139E0,4.1663834E-1,-3.17531E0,-5.4499155E-1,3.1804809E-4,5.404705E-1,-4.802164E-1,-2.7100558E0,3.4306047E0,5.7316726E-1],"split_indices":[1,0,0,0,0,2,1,0,3,3,3,3,2,3,2,0,0,2,2,2,3,3,2,0,3,0,2,3,3,3,2,3,2,3,3,3,0,2,0,3,3,3,3,0,0,0,0,0,0,2,2,2,0,3,3,2,1,0,0,0,2,0,0,0,0,0,0,0,0,0,0,0,0,0,0,0,0,0,0,0,0,0,0,0,0,0,0,0,0,0,0,0,0,0,0,0,0,0,0,0,0,0,0,0,0,0,0,0,0,0,0],"split_type":[0,0,0,0,0,0,0,0,0,0,0,0,0,0,0,0,0,0,0,0,0,0,0,0,0,0,0,0,0,0,0,0,0,0,0,0,0,0,0,0,0,0,0,0,0,0,0,0,0,0,0,0,0,0,0,0,0,0,0,0,0,0,0,0,0,0,0,0,0,0,0,0,0,0,0,0,0,0,0,0,0,0,0,0,0,0,0,0,0,0,0,0,0,0,0,0,0,0,0,0,0,0,0,0,0,0,0,0,0,0,0],"sum_hessian":[5.368E3,2.188E3,3.18E3,1.625E3,5.63E2,2.661E3,5.19E2,1.608E3,1.7E1,1.81E2,3.82E2,7E0,2.654E3,4.83E2,3.6E1,4.69E2,1.139E3,1.2E1,5E0,6E1,1.21E2,1.06E2,2.76E2,1E0,6E0,4.36E2,2.218E3,1.47E2,3.36E2,1E1,2.6E1,3.64E2,1.05E2,3.86E2,7.53E2,8E0,4E0,4E0,1E0,1.5E1,4.5E1,1.8E1,1.03E2,9.9E1,7E0,2.1E1,2.55E2,3E0,3E0,1.7E2,2.66E2,1.35E2,2.083E3,4E1,1.07E2,4.1E1,2.95E2,7E0,3E0,3E0,2.3E1,6.8E1,2.96E2,3E1,7.5E1,1.57E2,2.29E2,2.06E2,5.47E2,6E0,2E0,2E0,2E0,8E0,7E0,1.8E1,2.7E1,1E1,8E0,8.9E1,1.4E1,2E0,9.7E1,4E0,3E0,2E1,1E0,4E0,2.51E2,2E0,1E0,1.48E2,2.2E1,2.56E2,1E1,1.18E2,1.7E1,9.01E2,1.182E3,1.4E1,2.6E1,3.1E1,7.6E1,1E1,3.1E1,2.04E2,9.1E1,1E0,2E0,3E0,2E1],"tree_param":{"num_deleted":"0","num_feature":"4","num_nodes":"111","size_leaf_vector":"1"}},{"base_weights":[1.4336234E-2,1.3579671E-1,-3.9971817E-1,1.184247E-1,3.2493029E0,-2.053069E0,-2.0875572E-1,8.5894935E-2,1.7035094E0,3.560363E0,-5.3910315E-1,-4.3951116E0,-5.554647E-1,-3.1639987E-1,2.5609531E0,1.4886996E-1,-1.5630212E0,-4.8096213E-1,4.4323378E0,4.4157686E0,1.5114326E0,4.834113E0,-6.0484138E0,2.3055406E0,-2.2037385E0,-2.0148538E-1,-2.6175551E0,4.094859E0,-1.9946872E0,1.1779763E-1,2.4916077E0,-3.4973443E0,1.7251968E-2,-1.603175E0,6.1607084E0,7.5421762E0,2.6379282E0,3.179128E0,7.0217476E0,-2.622064E-1,4.5548997E0,-2.751362E-1,6.9040446E0,-4.10436E0,-1.0566518E1,-4.2920658E-1,1.9505013E1,-9.759576E0,-3.0710164E-1,-1.5192502E0,-1.0645263E-2,-3.2522414E0,2.4641342E-1,6.0014377E0,5.759904E-1,-1.1874794E0,-7.635627E-1,3.8972445E-2,-2.2987962E0,-2.077973E0,1.0997703E0,-1.3074049E0,5.532859E-1,9.458571E-1,-4.652576E-1,-2.6174567E0,-1.7923707E-1,3.7309148E0,9.1260976E-1,5.0469893E-1,3.298287E0,-2.8421992E-1,1.656793E0,1.1117673E0,-3.9228976E-1,2.6980045E0,1.6604176E-1,-5.2988625E-1,2.794218E-1,3.8348237E-1,1.6662227E0,3.1308281E0,7.586991E-1,-1.5247445E0,1.1305737E0,-3.618055E0,-1.3692424E0,-2.1674845E0,3.4043688E-1,7.177209E0,9.3719447E-1,-4.031875E0,-1.5198923E0,-6.1947036E-1,1.4023846E0,-3.3252203E-1,-1.7253051E0,6.282997E-1,-1.0885753E-1,-1.2703413E0,-6.6344297E-1,1.6747957E0,-2.90039E-1,3.5651991E0,1.1364144E0,-2.0920842E0,8.349818E-1,-6.7937565E-1,3.9108196E-1],"categories":[],"categories_nodes":[],"categories_segments":[],"categories_sizes":[],"default_left":[0,0,0,0,0,0,0,0,0,0,0,0,0,0,0,0,0,0,0,0,0,0,0,0,0,0,0,0,0,0,0,0,0,0,0,0,0,0,0,0,0,0,0,0,0,0,0,0,0,0,0,0,0,0,0,0,0,0,0,0,0,0,0,0,0,0,0,0,0,0,0,0,0,0,0,0,0,0,0,0,0,0,0,0,0,0,0,0,0,0,0,0,0,0,0,0,0,0,0,0,0,0,0,0,0,0,0,0,0],"id":11,"left_children":[1,3,5,7,9,11,13,15,17,19,-1,21,23,25,27,29,31,33,35,37,39,41,43,45,47,49,51,53,55,57,59,61,63,65,67,69,71,73,75,77,79,-1,81,83,85,87,89,91,93,95,97,99,101,103,105,-1,107,-1,-1,-1,-1,-1,-1,-1,-1,-1,-1,-1,-1,-1,-1,-1,-1,-1,-1,-1,-1,-1,-1,-1,-1,-1,-1,-1,-1,-1,-1,-1,-1,-1,-1,-1,-1,-1,-1,-1,-1,-1,-1,-1,-1,-1,-1,-1,-1,-1,-1,-1,-1],"loss_changes":[2.7006796E2,2.2418811E2,3.8412805E2,2.1280646E2,4.2501266E1,4.394978E2,3.2668057E2,4.2057913E2,4.9689874E2,3.1884521E1,0E0,7.769149E2,3.72907E2,2.7792383E2,2.9467285E2,2.8360437E2,4.555174E2,3.6018503E2,1.8657623E2,2.6016846E1,4.437842E1,1.0156915E2,3.2553564E2,1.3724218E3,7.1353674E2,2.5247215E2,9.168744E1,2.0452228E2,2.3569103E1,3.6376254E2,5.894374E2,3.1606262E2,4.1299857E2,2.8844583E2,9.9170685E1,2.4447906E2,2.6379834E2,3.320746E1,4.603386E1,1.2416871E1,2.7221413E0,0E0,6.632443E1,2.5787506E2,5.2542114E1,2.8454016E2,2.1481396E2,1.04623535E2,3.686839E2,2.1442688E2,6.517098E2,3.2548645E1,7.013708E1,2.1539075E2,2.1937874E2,0E0,2.777507E1,0E0,0E0,0E0,0E0,0E0,0E0,0E0,0E0,0E0,0E0,0E0,0E0,0E0,0E0,0E0,0E0,0E0,0E0,0E0,0E0,0E0,0E0,0E0,0E0,0E0,0E0,0E0,0E0,0E0,0E0,0E0,0E0,0E0,0E0,0E0,0E0,0E0,0E0,0E0,0E0,0E0,0E0,0E0,0E0,0E0,0E0,0E0,0E0,0E0,0E0,0E0,0E0],"parents":[2147483647,0,0,1,1,2,2,3,3,4,4,5,5,6,6,7,7,8,8,9,9,11,11,12,12,13,13,14,14,15,15,16,16,17,17,18,18,19,19,20,20,21,21,22,22,23,23,24,24,25,25,26,26,27,27,28,28,29,29,30,30,31,31,32,32,33,33,34,34,35,35,36,36,37,37,38,38,39,39,40,40,42,42,43,43,44,44,45,45,46,46,47,47,48,48,49,49,50,50,51,51,52,52,53,53,54,54,56,56],"right_children":[2,4,6,8,10,12,14,16,18,20,-1,22,24,26,28,30,32,34,36,38,40,42,44,46,48,50,52,54,56,58,60,62,64,66,68,70,72,74,76,78,80,-1,82,84,86,88,90,92,94,96,98,100,102,104,106,-1,108,-1,-1,-1,-1,-1,-1,-1,-1,-1,-1,-1,-1,-1,-1,-1,-1,-1,-1,-1,-1,-1,-1,-1,-1,-1,-1,-1,-1,-1,-1,-1,-1,-1,-1,-1,-1,-1,-1,-1,-1,-1,-1,-1,-1,-1,-1,-1,-1,-1,-1,-1,-1],"split_conditions":[2.318579E1,2.4308168E1,2.3762726E1,1.1500001E1,2.1892027E1,4.8269176E0,1.8126915E1,7.1999993E0,1.7865529E2,1.7865529E2,-5.3910315E-1,-1.3251666E0,9.351916E0,1.2000002E1,2.419909E2,6.2E0,8.7E0,2.2366402E1,2.0917068E2,1.4669485E2,2E-1,-4.0564165E0,3.3123333E0,9.026916E0,1.0941499E1,4.873334E-1,2.4754839E2,2.0235249E1,2.5076267E1,6.0000005E0,-7.043333E-1,1.7479E1,9.3E0,1.983167E0,3.8108346E-1,1.476439E1,1.3900002E1,1.2859091E2,1E-1,1.3138765E1,5E-1,-2.751362E-1,4.5E0,3.0165002E0,2.6000001E0,9.728057E1,9.239417E0,1E-1,3.3000002E0,2.873334E-1,2.4810834E0,1.886358E2,2.5074368E2,1.7189687E2,1.411322E2,-1.1874794E0,1.8462334E1,3.8972445E-2,-2.2987962E0,-2.077973E0,1.0997703E0,-1.3074049E0,5.532859E-1,9.458571E-1,-4.652576E-1,-2.6174567E0,-1.7923707E-1,3.7309148E0,9.1260976E-1,5.0469893E-1,3.298287E0,-2.8421992E-1,1.656793E0,1.1117673E0,-3.9228976E-1,2.6980045E0,1.6604176E-1,-5.2988625E-1,2.794218E-1,3.8348237E-1,1.6662227E0,3.1308281E0,7.586991E-1,-1.5247445E0,1.1305737E0,-3.618055E0,-1.3692424E0,-2.1674845E0,3.4043688E-1,7.177209E0,9.3719447E-1,-4.031875E0,-1.5198923E0,-6.1947036E-1,1.4023846E0,-3.3252203E-1,-1.7253051E0,6.282997E-1,-1.0885753E-1,-1.2703413E0,-6.6344297E-1,1.6747957E0,-2.90039E-1,3.5651991E0,1.1364144E0,-2.0920842E0,8.349818E-1,-6.7937565E-1,3.9108196E-1],"split_indices":[2,0,2,1,2,0,0,1,3,3,0,0,0,1,3,1,1,2,3,3,1,0,0,0,0,0,3,0,2,1,0,0,1,0,0,2,1,3,1,2,1,0,1,0,1,3,0,1,1,0,0,3,3,3,3,0,0,0,0,0,0,0,0,0,0,0,0,0,0,0,0,0,0,0,0,0,0,0,0,0,0,0,0,0,0,0,0,0,0,0,0,0,0,0,0,0,0,0,0,0,0,0,0,0,0,0,0,0,0],"split_type":[0,0,0,0,0,0,0,0,0,0,0,0,0,0,0,0,0,0,0,0,0,0,0,0,0,0,0,0,0,0,0,0,0,0,0,0,0,0,0,0,0,0,0,0,0,0,0,0,0,0,0,0,0,0,0,0,0,0,0,0,0,0,0,0,0,0,0,0,0,0,0,0,0,0,0,0,0,0,0,0,0,0,0,0,0,0,0,0,0,0,0,0,0,0,0,0,0,0,0,0,0,0,0,0,0,0,0,0,0],"sum_hessian":[5.368E3,4.151E3,1.217E3,4.129E3,2.2E1,1.25E2,1.092E3,4.047E3,8.2E1,2.1E1,1E0,4.8E1,7.7E1,1.052E3,4E1,3.899E3,1.48E2,4.6E1,3.6E1,1.4E1,7E0,7E0,4.1E1,2.8E1,4.9E1,1.003E3,4.9E1,3E1,1E1,3.849E3,5E1,6.6E1,8.2E1,4E1,6E0,1.2E1,2.4E1,1.1E1,3E0,5E0,2E0,2E0,5E0,3E1,1.1E1,2.5E1,3E0,9E0,4E1,1.26E2,8.77E2,4E1,9E0,1.9E1,1.1E1,3E0,7E0,3.844E3,5E0,5E0,4.5E1,5.7E1,9E0,2.7E1,5.5E1,4E0,3.6E1,1E0,5E0,5E0,7E0,1.1E1,1.3E1,1E1,1E0,2E0,1E0,2E0,3E0,1E0,1E0,2E0,3E0,2.7E1,3E0,8E0,3E0,4E0,2.1E1,2E0,1E0,4E0,5E0,3E1,1E1,1.16E2,1E1,1.25E2,7.52E2,1.9E1,2.1E1,1E0,8E0,4E0,1.5E1,2E0,9E0,4E0,3E0],"tree_param":{"num_deleted":"0","num_feature":"4","num_nodes":"109","size_leaf_vector":"1"}},{"base_weights":[1.1523087E-2,2.5759757E-1,-1.5664428E-1,5.9909695E-1,-3.0731148E-1,2.594304E-1,-2.6611894E-1,2.8498068E-2,1.6339129E0,-2.386236E0,-8.923975E-2,-3.8048112E-1,8.0924416E-1,-3.609973E0,-2.2312519E-1,-1.2171681E-1,2.9447987E0,4.5108002E-1,3.9108205E0,-2.7639847E0,5.2931104E0,-8.2275844E-1,4.0711612E-1,-9.7006863E-1,9.9297464E-1,3.0552485E0,4.4319412E-1,-6.2895536E0,-8.756635E-1,2.112319E0,-2.5240538E-1,5.393626E-1,-9.786063E-1,7.2299495E-2,8.301977E0,6.704725E0,1.2045701E-1,1.4188843E1,3.0119636E0,-1.0578212E0,-4.6836624E0,-6.8192625E-1,2.5718617E0,-3.4161773E-1,-6.120887E0,1.7973878E0,-3.796939E-1,-1.6112548E0,8.04391E-1,2.5292304E0,-1.0171359E0,9.6035004E-4,8.03851E0,-4.609287E0,6.275891E-1,-1.6474338E0,-7.234086E0,-7.0068E0,9.386372E-1,7.9162083E0,-6.2182707E-1,-2.6287405E0,-2.2204857E-1,6.573312E-1,-3.3230558E-1,-7.6989603E-1,3.4643877E-1,6.2384945E-1,-1.3857591E0,3.4873517E0,-1.1223303E0,-1.7032926E0,2.9996808E0,2.6363713E-1,-5.7279235E-1,5.211384E0,-3.600059E0,2.907295E0,5.804207E-1,-8.1905377E-1,9.875475E0,-4.0843204E-1,-2.0500941E0,1.286649E-1,-7.155098E-1,-7.5261134E-1,-2.5085285E0,-4.1674978E-1,1.1580186E0,-3.9890578E-1,8.764571E-1,4.480454E-1,-6.362182E-1,1.9271746E0,-6.696333E-2,9.257858E-1,-2.3334367E0,1.3742547E0,-5.2383906E-1,-1.4366994E0,8.214101E-1,3.3459053E0,7.085806E-1,-1.5967375E0,3.78364E-1,1.1059248E0,1.0416954E-1,-6.165293E-1,-6.366634E-2,-2.496995E0,-1.1479962E0,-2.4801276E0,-4.8388883E-1,1.019016E0,-6.014074E-1,-6.8860245E-1,2.791759E0,-3.2589262E0,1.1494256E-1,1.1716592E0,-1.122429E0,2.2720501E0,-7.236164E-2],"categories":[],"categories_nodes":[],"categories_segments":[],"categories_sizes":[],"default_left":[0,0,0,0,0,0,0,0,0,0,0,0,0,0,0,0,0,0,0,0,0,0,0,0,0,0,0,0,0,0,0,0,0,0,0,0,0,0,0,0,0,0,0,0,0,0,0,0,0,0,0,0,0,0,0,0,0,0,0,0,0,0,0,0,0,0,0,0,0,0,0,0,0,0,0,0,0,0,0,0,0,0,0,0,0,0,0,0,0,0,0,0,0,0,0,0,0,0,0,0,0,0,0,0,0,0,0,0,0,0,0,0,0,0,0,0,0,0,0,0,0,0,0],"id":12,"left_children":[1,3,5,7,9,11,13,15,17,19,21,23,25,27,29,31,33,35,37,39,41,43,45,47,49,51,53,55,57,59,61,63,65,67,69,71,73,75,77,79,81,-1,-1,83,85,87,89,91,93,95,97,99,101,103,105,107,109,111,113,115,117,119,121,-1,-1,-1,-1,-1,-1,-1,-1,-1,-1,-1,-1,-1,-1,-1,-1,-1,-1,-1,-1,-1,-1,-1,-1,-1,-1,-1,-1,-1,-1,-1,-1,-1,-1,-1,-1,-1,-1,-1,-1,-1,-1,-1,-1,-1,-1,-1,-1,-1,-1,-1,-1,-1,-1,-1,-1,-1,-1,-1,-1],"loss_changes":[2.2221867E2,4.207412E2,1.4537239E2,8.02395E2,3.7244458E2,2.3427629E2,3.6234467E2,3.8454736E2,1.2990522E3,2.4089734E2,2.7157925E2,2.5037317E2,2.9297565E2,2.2895016E2,1.7114685E2,4.7353195E2,6.611049E2,6.587564E2,1.4816111E3,2.4069183E2,1.18748184E2,7.652017E2,4.8745886E2,2.4705199E2,2.8976065E2,7.6100806E2,2.9077325E2,5.823645E1,1.9568018E2,4.9685162E2,1.7723627E2,1.2865015E3,1.2359158E3,2.826918E2,6.436904E2,7.094124E2,4.6960632E2,1.2919434E3,1.0820592E3,2.4194985E3,2.406919E2,0E0,0E0,4.3714624E2,1.8138397E2,1.0635864E3,8.9768176E2,2.5467023E2,3.3636267E2,3.281345E2,1.7531558E2,4.3264737E2,3.0957227E2,5.276613E1,2.5513179E2,1.9042015E0,1.6398743E1,1.385672E1,1.080986E2,1.6326538E2,2.3058934E2,2.400013E2,3.6546597E2,0E0,0E0,0E0,0E0,0E0,0E0,0E0,0E0,0E0,0E0,0E0,0E0,0E0,0E0,0E0,0E0,0E0,0E0,0E0,0E0,0E0,0E0,0E0,0E0,0E0,0E0,0E0,0E0,0E0,0E0,0E0,0E0,0E0,0E0,0E0,0E0,0E0,0E0,0E0,0E0,0E0,0E0,0E0,0E0,0E0,0E0,0E0,0E0,0E0,0E0,0E0,0E0,0E0,0E0,0E0,0E0,0E0,0E0,0E0,0E0],"parents":[2147483647,0,0,1,1,2,2,3,3,4,4,5,5,6,6,7,7,8,8,9,9,10,10,11,11,12,12,13,13,14,14,15,15,16,16,17,17,18,18,19,19,20,20,21,21,22,22,23,23,24,24,25,25,26,26,27,27,28,28,29,29,30,30,31,31,32,32,33,33,34,34,35,35,36,36,37,37,38,38,39,39,40,40,43,43,44,44,45,45,46,46,47,47,48,48,49,49,50,50,51,51,52,52,53,53,54,54,55,55,56,56,57,57,58,58,59,59,60,60,61,61,62,62],"right_children":[2,4,6,8,10,12,14,16,18,20,22,24,26,28,30,32,34,36,38,40,42,44,46,48,50,52,54,56,58,60,62,64,66,68,70,72,74,76,78,80,82,-1,-1,84,86,88,90,92,94,96,98,100,102,104,106,108,110,112,114,116,118,120,122,-1,-1,-1,-1,-1,-1,-1,-1,-1,-1,-1,-1,-1,-1,-1,-1,-1,-1,-1,-1,-1,-1,-1,-1,-1,-1,-1,-1,-1,-1,-1,-1,-1,-1,-1,-1,-1,-1,-1,-1,-1,-1,-1,-1,-1,-1,-1,-1,-1,-1,-1,-1,-1,-1,-1,-1,-1,-1,-1,-1],"split_conditions":[1.9883055E2,1E0,1.4565548E1,1.6992609E1,1.3000001E0,1.2661564E1,1.476439E1,8E-1,1.4669485E2,1.9178163E2,3.9498336E0,2.9264862E2,2.1742273E2,2E-1,1.4917212E1,1.3905509E1,1.4830076E1,1.7163355E1,1.757744E1,1.758481E1,2.549833E0,3.3477504E0,9.595666E0,1.7143583E1,3.302055E2,1.3905509E1,2.2214009E2,1.4618837E1,2.1655498E2,1.6560835E0,-5.435583E0,8.824834E0,1.3554001E1,9.7165E0,1.8130618E2,1.2822018E1,2.2039528E1,6E-1,1.5682614E2,1.7418196E1,4.69056E1,-6.8192625E-1,2.5718617E0,1.5682614E2,4.3E0,1.2084738E2,2.2768396E1,-2.5814164E0,1.7701918E1,1.2599998E1,7.42159E0,2.081961E2,1.4118243E1,1.8595669E1,2.3095015E2,3.0026645E2,3.2598297E2,1.11665E1,3E0,-8.5251665E0,2.0400945E2,1.5349684E1,-4.8543334E0,6.573312E-1,-3.3230558E-1,-7.6989603E-1,3.4643877E-1,6.2384945E-1,-1.3857591E0,3.4873517E0,-1.1223303E0,-1.7032926E0,2.9996808E0,2.6363713E-1,-5.7279235E-1,5.211384E0,-3.600059E0,2.907295E0,5.804207E-1,-8.1905377E-1,9.875475E0,-4.0843204E-1,-2.0500941E0,1.286649E-1,-7.155098E-1,-7.5261134E-1,-2.5085285E0,-4.1674978E-1,1.1580186E0,-3.9890578E-1,8.764571E-1,4.480454E-1,-6.362182E-1,1.9271746E0,-6.696333E-2,9.257858E-1,-2.3334367E0,1.3742547E0,-5.2383906E-1,-1.4366994E0,8.214101E-1,3.3459053E0,7.085806E-1,-1.5967375E0,3.78364E-1,1.1059248E0,1.0416954E-1,-6.165293E-1,-6.366634E-2,-2.496995E0,-1.1479962E0,-2.4801276E0,-4.8388883E-1,1.019016E0,-6.014074E-1,-6.8860245E-1,2.791759E0,-3.2589262E0,1.1494256E-1,1.1716592E0,-1.122429E0,2.2720501E0,-7.236164E-2],"split_indices":[3,1,2,2,1,2,2,1,3,3,0,3,3,1,2,2,2,2,2,2,0,0,0,0,3,2,3,2,3,0,0,0,0,0,3,3,2,1,3,2,3,0,0,3,1,3,2,0,0,2,2,3,2,0,3,3,3,0,1,0,3,2,0,0,0,0,0,0,0,0,0,0,0,0,0,0,0,0,0,0,0,0,0,0,0,0,0,0,0,0,0,0,0,0,0,0,0,0,0,0,0,0,0,0,0,0,0,0,0,0,0,0,0,0,0,0,0,0,0,0,0,0,0],"split_type":[0,0,0,0,0,0,0,0,0,0,0,0,0,0,0,0,0,0,0,0,0,0,0,0,0,0,0,0,0,0,0,0,0,0,0,0,0,0,0,0,0,0,0,0,0,0,0,0,0,0,0,0,0,0,0,0,0,0,0,0,0,0,0,0,0,0,0,0,0,0,0,0,0,0,0,0,0,0,0,0,0,0,0,0,0,0,0,0,0,0,0,0,0,0,0,0,0,0,0,0,0,0,0,0,0,0,0,0,0,0,0,0,0,0,0,0,0,0,0,0,0,0,0],"sum_hessian":[5.368E3,2.179E3,3.189E3,1.358E3,8.21E2,6.64E2,2.525E3,8.76E2,4.82E2,7.7E1,7.44E2,3.07E2,3.57E2,3.1E1,2.494E3,8.34E2,4.2E1,3.18E2,1.64E2,7.4E1,3E0,3E2,4.44E2,2.15E2,9.2E1,4.9E1,3.08E2,1.5E1,1.6E1,3E1,2.464E3,4.71E2,3.63E2,2.8E1,1.4E1,1.5E1,3.03E2,1.2E1,1.52E2,4E1,3.4E1,1E0,2E0,2.76E2,2.4E1,1.6E2,2.84E2,1.58E2,5.7E1,5.2E1,4E1,3.1E1,1.8E1,1E1,2.98E2,3E0,1.2E1,3E0,1.3E1,9E0,2.1E1,3E1,2.434E3,2.35E2,2.36E2,2.08E2,1.55E2,2E1,8E0,1.1E1,3E0,3E0,1.2E1,2.21E2,8.2E1,1.1E1,1E0,2E1,1.32E2,3.9E1,1E0,1.4E1,2E1,2.01E2,7.5E1,1E1,1.4E1,6.3E1,9.7E1,2.21E2,6.3E1,2.2E1,1.36E2,8E0,4.9E1,5E1,2E0,4E0,3.6E1,1.1E1,2E1,1.1E1,7E0,9E0,1E0,2.4E1,2.74E2,2E0,1E0,8E0,4E0,2E0,1E0,7E0,6E0,1E0,8E0,1E0,2E1,4E0,2.6E1,5E0,2.429E3],"tree_param":{"num_deleted":"0","num_feature":"4","num_nodes":"123","size_leaf_vector":"1"}},{"base_weights":[1.0362875E-2,-1.1664325E-2,1.3636346E0,-7.947338E-1,2.0740848E-2,-2.9313687E-2,1.967734E0,-1.1763406E0,2.8893468E0,3.9168507E-1,-1.0976197E-1,2.2171876E0,-4.7686706E0,4.207873E0,1.4355488E0,1.2355515E0,-1.6513668E0,5.7831297E0,-1.2900685E0,1.8034892E-1,2.159035E0,3.3745762E-2,-5.128113E-1,8.450132E-1,2.785498E0,-2.0665455E0,-1.6951221E0,1.4465218E0,5.062565E0,8.28831E-1,3.5112906E0,2.4814813E-1,1.0697735E1,-3.1013854E0,-7.736195E-1,2.357143E0,4.582613E0,1.8665636E0,-4.188687E0,2.867263E-1,-2.8612342E0,4.6552167E0,-7.480691E-1,2.1532384E-1,-7.9104936E-1,-3.3522596E0,-3.479206E-1,1.1705642E0,-3.14778E-1,9.049667E-1,3.5207376E0,-6.288307E-1,-1.3680268E-2,5.5313236E-1,6.1900353E-1,3.1465387E-1,1.6458354E0,-7.106086E-1,1.1521087E0,1.4066617E0,5.755513E0,2.1463937E-1,-1.9956042E0,-1.4293443E-1,4.9569154E0,-2.3731561E-1,-1.6631324E0,6.2335676E-1,-4.5100203E-1,-1.7761185E0,1.5499731E0,2.0609644E-1,9.8772985E-1,-2.0489803E-1,-1.4683087E0,-3.2615073E-2,3.6949608E-1,-2.0109284E0,8.192629E-1,-2.3927822E0,1.8156697E0,9.907059E-1,-1.808917E0,4.952331E-2,1.7586824E0,-1.3725077E0,-1.1927212E-1,1.9836813E0,-1.2204183E0,1.6069747E0,-1.3030502E-1,-5.596287E-1,1.1053139E-1,-2.5801736E-1,4.683712E-1,5.859604E-2,1.3328862E0,-2.9894373E-1,5.478533E-1,7.7765167E-1,4.885354E-2,-9.057622E-2,1.1356236E0,3.3600426E-1,1.9903153E0],"categories":[],"categories_nodes":[],"categories_segments":[],"categories_sizes":[],"default_left":[0,0,0,0,0,0,0,0,0,0,0,0,0,0,0,0,0,0,0,0,0,0,0,0,0,0,0,0,0,0,0,0,0,0,0,0,0,0,0,0,0,0,0,0,0,0,0,0,0,0,0,0,0,0,0,0,0,0,0,0,0,0,0,0,0,0,0,0,0,0,0,0,0,0,0,0,0,0,0,0,0,0,0,0,0,0,0,0,0,0,0,0,0,0,0,0,0,0,0,0,0,0,0,0,0],"id":13,"left_children":[1,3,5,7,9,11,13,15,17,19,21,23,25,27,29,31,33,35,37,39,41,43,45,47,49,-1,51,53,55,57,59,61,63,65,67,69,-1,71,73,75,77,79,81,83,85,87,89,-1,91,93,95,-1,-1,97,-1,-1,-1,-1,99,101,103,-1,-1,-1,-1,-1,-1,-1,-1,-1,-1,-1,-1,-1,-1,-1,-1,-1,-1,-1,-1,-1,-1,-1,-1,-1,-1,-1,-1,-1,-1,-1,-1,-1,-1,-1,-1,-1,-1,-1,-1,-1,-1,-1,-1],"loss_changes":[1.6005928E2,1.3410066E2,7.24249E1,2.9863153E2,2.4572002E2,2.9804126E2,6.548953E1,2.2087134E2,2.4934702E2,4.9301062E2,2.1720914E2,1.2462814E1,4.6961334E1,1.8638031E1,6.005922E1,2.963211E2,2.0124072E2,3.5423746E2,9.0167305E1,3.8293964E2,1.0266716E3,4.1501855E2,4.604775E2,2.6045519E1,1.4788185E1,0E0,3.2115421E0,1.0629511E0,7.8460846E0,4.4076553E1,4.385974E1,1.0149604E2,2.031518E2,3.3417853E2,2.132825E2,2.6314014E2,0E0,6.1477394E0,9.026581E0,4.2685947E2,8.7766956E2,1.3893619E3,1.4318455E3,6.434002E2,7.426323E2,4.120608E2,4.6233032E2,0E0,7.043872E0,7.1344233E0,2.6733002E1,0E0,0E0,7.737924E0,0E0,0E0,0E0,0E0,5.228817E1,2.9592926E1,1.2939423E1,0E0,0E0,0E0,0E0,0E0,0E0,0E0,0E0,0E0,0E0,0E0,0E0,0E0,0E0,0E0,0E0,0E0,0E0,0E0,0E0,0E0,0E0,0E0,0E0,0E0,0E0,0E0,0E0,0E0,0E0,0E0,0E0,0E0,0E0,0E0,0E0,0E0,0E0,0E0,0E0,0E0,0E0,0E0,0E0],"parents":[2147483647,0,0,1,1,2,2,3,3,4,4,5,5,6,6,7,7,8,8,9,9,10,10,11,11,12,12,13,13,14,14,15,15,16,16,17,17,18,18,19,19,20,20,21,21,22,22,23,23,24,24,26,26,27,27,28,28,29,29,30,30,31,31,32,32,33,33,34,34,35,35,37,37,38,38,39,39,40,40,41,41,42,42,43,43,44,44,45,45,46,46,48,48,49,49,50,50,53,53,58,58,59,59,60,60],"right_children":[2,4,6,8,10,12,14,16,18,20,22,24,26,28,30,32,34,36,38,40,42,44,46,48,50,-1,52,54,56,58,60,62,64,66,68,70,-1,72,74,76,78,80,82,84,86,88,90,-1,92,94,96,-1,-1,98,-1,-1,-1,-1,100,102,104,-1,-1,-1,-1,-1,-1,-1,-1,-1,-1,-1,-1,-1,-1,-1,-1,-1,-1,-1,-1,-1,-1,-1,-1,-1,-1,-1,-1,-1,-1,-1,-1,-1,-1,-1,-1,-1,-1,-1,-1,-1,-1,-1,-1],"split_conditions":[2.2203997E1,1.9534058E1,1.19102745E2,5.5999994E0,1.5865948E2,9.5149796E1,1.45329E2,1.2661564E1,4.1727495E0,1.4669485E2,1.40060835E1,6.0844105E1,1.04969894E2,2.2697752E1,2.3379362E2,1.2475961E1,1.749615E1,1.2894166E0,2.2127556E1,1.4339896E2,6E-1,2.8E0,1.4416499E1,9.124919E0,2.3439415E1,-2.0665455E0,2.4308168E1,1E-1,1.2266763E2,1.0931203E1,2.2697752E1,1.2397806E1,-6.666834E0,9.124919E0,1.9228851E1,2.1794127E1,4.582613E0,1.57165E1,7.1999993E0,1.3754001E1,1.8345877E1,8.977501E-1,6.674834E0,2.6999998E0,1.7653183E2,1.7053773E2,1.4508166E1,1.1705642E0,2.2697752E1,6.2949455E1,1.370839E1,-6.288307E-1,-1.3680268E-2,1.4408997E1,6.1900353E-1,3.1465387E-1,1.6458354E0,-7.106086E-1,2.3439415E1,2.7801056E2,1.0644379E1,2.1463937E-1,-1.9956042E0,-1.4293443E-1,4.9569154E0,-2.3731561E-1,-1.6631324E0,6.2335676E-1,-4.5100203E-1,-1.7761185E0,1.5499731E0,2.0609644E-1,9.8772985E-1,-2.0489803E-1,-1.4683087E0,-3.2615073E-2,3.6949608E-1,-2.0109284E0,8.192629E-1,-2.3927822E0,1.8156697E0,9.907059E-1,-1.808917E0,4.952331E-2,1.7586824E0,-1.3725077E0,-1.1927212E-1,1.9836813E0,-1.2204183E0,1.6069747E0,-1.3030502E-1,-5.596287E-1,1.1053139E-1,-2.5801736E-1,4.683712E-1,5.859604E-2,1.3328862E0,-2.9894373E-1,5.478533E-1,7.7765167E-1,4.885354E-2,-9.057622E-2,1.1356236E0,3.3600426E-1,1.9903153E0],"split_indices":[0,3,3,1,3,3,3,2,0,3,0,3,3,0,3,2,2,0,2,3,1,1,0,3,0,0,0,1,3,2,0,2,0,3,2,2,0,0,1,0,2,0,0,1,3,3,0,0,0,3,2,0,0,2,0,0,0,0,0,3,2,0,0,0,0,0,0,0,0,0,0,0,0,0,0,0,0,0,0,0,0,0,0,0,0,0,0,0,0,0,0,0,0,0,0,0,0,0,0,0,0,0,0,0,0],"split_type":[0,0,0,0,0,0,0,0,0,0,0,0,0,0,0,0,0,0,0,0,0,0,0,0,0,0,0,0,0,0,0,0,0,0,0,0,0,0,0,0,0,0,0,0,0,0,0,0,0,0,0,0,0,0,0,0,0,0,0,0,0,0,0,0,0,0,0,0,0,0,0,0,0,0,0,0,0,0,0,0,0,0,0,0,0,0,0,0,0,0,0,0,0,0,0,0,0,0,0,0,0,0,0,0,0],"sum_hessian":[5.368E3,5.283E3,8.5E1,2.09E2,5.074E3,2.6E1,5.9E1,1.9E2,1.9E1,1.32E3,3.754E3,1.8E1,8E0,1E1,4.9E1,3.1E1,1.59E2,1.1E1,8E0,1.18E3,1.4E2,2.769E3,9.85E2,6E0,1.2E1,4E0,4E0,3E0,7E0,3.9E1,1E1,2.9E1,2E0,5.9E1,1E2,9E0,2E0,4E0,4E0,1.141E3,3.9E1,7.5E1,6.5E1,2.27E3,4.99E2,5.3E1,9.32E2,1E0,5E0,4E0,8E0,3E0,1E0,2E0,1E0,1E0,6E0,3E0,3.6E1,6E0,4E0,2.8E1,1E0,1E0,1E0,3.1E1,2.8E1,2E1,8E1,2E0,7E0,3E0,1E0,1E0,3E0,8.05E2,3.36E2,2.3E1,1.6E1,7E0,6.8E1,3.7E1,2.8E1,2.251E3,1.9E1,4.6E1,4.53E2,3E0,5E1,1.3E1,9.19E2,1E0,4E0,1E0,3E0,2E0,6E0,1E0,1E0,1.4E1,2.2E1,4E0,2E0,1E0,3E0],"tree_param":{"num_deleted":"0","num_feature":"4","num_nodes":"105","size_leaf_vector":"1"}},{"base_weights":[9.381077E-3,9.294892E-2,-2.955954E-1,-1.6224649E0,1.1978798E-1,-1.8982099E0,-1.352052E-1,-3.2315975E-1,-4.32943E0,1.6898261E0,4.5710575E-2,-2.6087427E0,3.330848E0,-2.2738943E-1,2.1412208E0,-8.234935E-1,3.2537289E0,3.3656502E-1,-5.125794E0,6.2644356E-1,3.2694583E0,2.4067905E-2,4.539285E0,-4.6358414E0,-6.117577E-1,6.3329153E0,-1.2270495E0,1.737887E-1,-7.9926854E-1,3.008972E0,-2.5034232E0,6.631659E0,-1.3363974E0,-5.8895875E-2,1.7388992E-1,-2.526996E0,-6.21461E0,2.0321677E0,-5.628737E0,9.785114E0,1.7454479E0,4.6612244E0,1.110555E-2,9.435641E0,-8.109997E-1,1.2590504E0,-5.5515513E0,1.2930273E1,-1.8018992E0,3.0190675E0,1.0849639E1,2.9606515E-1,-1.3263935E0,6.78432E-2,1.0562798E1,-3.1463106E0,-1.3446136E-1,4.9351363E0,4.1320544E-1,-2.754743E-1,-1.231655E0,6.151056E-1,2.369141E0,-1.9981415E0,-1.3107455E-1,-1.0506667E0,4.9865428E-1,-2.0528705E0,-6.146308E-1,1.0209785E0,-1.1609377E0,8.420901E-1,-2.5320992E0,6.9978106E-1,5.071319E0,8.9231896E-1,-1.0869116E0,2.1594582E0,-4.734062E-1,-2.822998E-1,2.2858467E-2,5.3476458E0,-7.557899E-1,-7.6828426E-1,1.2377583E0,-1.5412483E0,9.5441705E-1,1.0156918E-1,-1.8114836E0,5.8728228E0,-1.0510695E0,4.4259387E-1,-9.1149575E-1,1.5394951E0,-1.131577E0,4.0490775E0,8.332601E-1,3.2918188E-1,-4.3631488E-1,5.2438512E-2,-6.506323E-1,6.6300807E0,-2.1930121E-1,-1.2713969E0,-2.5843763E-1,3.6258703E-1,-1.8623081E-1,3.4943569E0,9.1961133E-1,-1.4088428E0,9.4876754E-1,2.3427273E-1,-2.6637155E-1],"categories":[],"categories_nodes":[],"categories_segments":[],"categories_sizes":[],"default_left":[0,0,0,0,0,0,0,0,0,0,0,0,0,0,0,0,0,0,0,0,0,0,0,0,0,0,0,0,0,0,0,0,0,0,0,0,0,0,0,0,0,0,0,0,0,0,0,0,0,0,0,0,0,0,0,0,0,0,0,0,0,0,0,0,0,0,0,0,0,0,0,0,0,0,0,0,0,0,0,0,0,0,0,0,0,0,0,0,0,0,0,0,0,0,0,0,0,0,0,0,0,0,0,0,0,0,0,0,0,0,0,0,0],"id":14,"left_children":[1,3,5,7,9,11,13,15,17,19,21,23,25,27,29,31,-1,33,35,37,39,41,43,45,47,49,51,53,55,57,59,61,63,-1,-1,65,67,69,71,73,75,77,79,81,83,85,87,89,91,93,95,97,-1,99,101,103,105,107,109,111,-1,-1,-1,-1,-1,-1,-1,-1,-1,-1,-1,-1,-1,-1,-1,-1,-1,-1,-1,-1,-1,-1,-1,-1,-1,-1,-1,-1,-1,-1,-1,-1,-1,-1,-1,-1,-1,-1,-1,-1,-1,-1,-1,-1,-1,-1,-1,-1,-1,-1,-1,-1,-1],"loss_changes":[1.3686304E2,1.9425336E2,2.9662885E2,2.272172E2,4.8270215E2,3.988081E2,2.2103986E2,2.603999E2,7.97576E1,3.1206573E2,3.8549872E2,3.7363586E2,1.8565128E2,2.3208798E2,1.7277892E2,1.7710872E2,0E0,6.319022E-1,3.522873E1,1.00505414E3,7.2766516E2,2.3719632E2,5.0539343E2,2.5529816E2,7.9691174E2,8.698605E1,3.050036E1,6.5418115E2,6.5023474E2,1.7295633E2,2.3854706E1,1.2007141E0,1.9822417E2,0E0,0E0,3.4419094E1,1.7388794E1,7.6573883E2,5.217649E2,7.033601E2,4.198272E2,1.8547542E2,2.4405496E2,1.0479084E3,9.6958595E1,1.0241869E2,1.16719604E2,5.054502E2,1.8682294E2,1.0543535E2,2.6619354E1,8.608217E0,0E0,1.415132E2,7.979666E2,2.2582703E2,2.1367809E2,2.1531924E2,2.3961023E2,3.28122E0,0E0,0E0,0E0,0E0,0E0,0E0,0E0,0E0,0E0,0E0,0E0,0E0,0E0,0E0,0E0,0E0,0E0,0E0,0E0,0E0,0E0,0E0,0E0,0E0,0E0,0E0,0E0,0E0,0E0,0E0,0E0,0E0,0E0,0E0,0E0,0E0,0E0,0E0,0E0,0E0,0E0,0E0,0E0,0E0,0E0,0E0,0E0,0E0,0E0,0E0,0E0,0E0,0E0],"parents":[2147483647,0,0,1,1,2,2,3,3,4,4,5,5,6,6,7,7,8,8,9,9,10,10,11,11,12,12,13,13,14,14,15,15,17,17,18,18,19,19,20,20,21,21,22,22,23,23,24,24,25,25,26,26,27,27,28,28,29,29,30,30,31,31,32,32,35,35,36,36,37,37,38,38,39,39,40,40,41,41,42,42,43,43,44,44,45,45,46,46,47,47,48,48,49,49,50,50,51,51,53,53,54,54,55,55,56,56,57,57,58,58,59,59],"right_children":[2,4,6,8,10,12,14,16,18,20,22,24,26,28,30,32,-1,34,36,38,40,42,44,46,48,50,52,54,56,58,60,62,64,-1,-1,66,68,70,72,74,76,78,80,82,84,86,88,90,92,94,96,98,-1,100,102,104,106,108,110,112,-1,-1,-1,-1,-1,-1,-1,-1,-1,-1,-1,-1,-1,-1,-1,-1,-1,-1,-1,-1,-1,-1,-1,-1,-1,-1,-1,-1,-1,-1,-1,-1,-1,-1,-1,-1,-1,-1,-1,-1,-1,-1,-1,-1,-1,-1,-1,-1,-1,-1,-1,-1,-1],"split_conditions":[2.770048E2,-4.8543334E0,2.83815E2,1.8847641E1,-1.6272501E0,1.6214418E1,9.8E0,1.8671474E1,-8.5251665E0,1.7873556E1,2.7573898E2,1.8089775E1,1.9264418E1,5.754001E0,2.707669E1,8.217153E0,3.2537289E0,2.5E0,5E-1,1.608761E1,1E-1,7.42159E0,9.468583E0,-2.5814164E0,1.872346E1,1.757744E1,2.2E0,5.5831666E0,8.5164995E0,1.0549832E1,3.0928587E1,-8.5251665E0,1.0799999E1,-5.8895875E-2,1.7388992E-1,3E-1,2.5620771E1,2.3997154E2,5.5959988E1,2.0209718E2,2.3847115E1,1.6117981E2,3.8108346E-1,1.9852295E1,1.2000002E0,1.1480557E1,9.83268E0,7.618584E0,2.7801056E2,1.7388409E1,1.7551918E1,2.1416498E1,-1.3263935E0,5.1040006E0,2.910849E2,2.0380579E1,1.1516501E1,1.8532133E1,1.3458164E1,1.02E1,-1.231655E0,6.151056E-1,2.369141E0,-1.9981415E0,-1.3107455E-1,-1.0506667E0,4.9865428E-1,-2.0528705E0,-6.146308E-1,1.0209785E0,-1.1609377E0,8.420901E-1,-2.5320992E0,6.9978106E-1,5.071319E0,8.9231896E-1,-1.0869116E0,2.1594582E0,-4.734062E-1,-2.822998E-1,2.2858467E-2,5.3476458E0,-7.557899E-1,-7.6828426E-1,1.2377583E0,-1.5412483E0,9.5441705E-1,1.0156918E-1,-1.8114836E0,5.8728228E0,-1.0510695E0,4.4259387E-1,-9.1149575E-1,1.5394951E0,-1.131577E0,4.0490775E0,8.332601E-1,3.2918188E-1,-4.3631488E-1,5.2438512E-2,-6.506323E-1,6.6300807E0,-2.1930121E-1,-1.2713969E0,-2.5843763E-1,3.6258703E-1,-1.8623081E-1,3.4943569E0,9.1961133E-1,-1.4088428E0,9.4876754E-1,2.3427273E-1,-2.6637155E-1],"split_indices":[3,0,3,2,0,0,1,2,0,2,3,2,0,0,2,2,0,1,1,2,1,2,0,0,2,2,1,0,0,0,2,0,2,0,0,1,2,3,3,3,2,3,0,2,1,2,2,0,3,2,0,0,0,0,3,2,0,2,0,1,0,0,0,0,0,0,0,0,0,0,0,0,0,0,0,0,0,0,0,0,0,0,0,0,0,0,0,0,0,0,0,0,0,0,0,0,0,0,0,0,0,0,0,0,0,0,0,0,0,0,0,0,0],"split_type":[0,0,0,0,0,0,0,0,0,0,0,0,0,0,0,0,0,0,0,0,0,0,0,0,0,0,0,0,0,0,0,0,0,0,0,0,0,0,0,0,0,0,0,0,0,0,0,0,0,0,0,0,0,0,0,0,0,0,0,0,0,0,0,0,0,0,0,0,0,0,0,0,0,0,0,0,0,0,0,0,0,0,0,0,0,0,0,0,0,0,0,0,0,0,0,0,0,0,0,0,0,0,0,0,0,0,0,0,0,0,0,0,0],"sum_hessian":[5.368E3,4.214E3,1.154E3,6.4E1,4.15E3,1.04E2,1.05E3,4.4E1,2E1,1.86E2,3.964E3,9.2E1,1.2E1,1.01E3,4E1,4.3E1,1E0,3E0,1.7E1,1.12E2,7.4E1,3.946E3,1.8E1,4.5E1,4.7E1,7E0,5E0,5.94E2,4.16E2,3.4E1,6E0,2E0,4.1E1,1E0,2E0,6E0,1.1E1,9.2E1,2E1,1.3E1,6.1E1,1E1,3.936E3,9E0,9E0,6E0,3.9E1,3E0,4.4E1,5E0,2E0,4E0,1E0,5.89E2,5E0,9.1E1,3.25E2,1.9E1,1.5E1,3E0,3E0,1E0,1E0,5E0,3.6E1,5E0,1E0,9E0,2E0,7.5E1,1.7E1,5E0,1.5E1,7E0,6E0,5E1,1.1E1,7E0,3E0,2.51E2,3.685E3,5E0,4E0,7E0,2E0,1E0,5E0,3E0,3.6E1,2E0,1E0,1.2E1,3.2E1,4E0,1E0,1E0,1E0,3E0,1E0,5.63E2,2.6E1,2E0,3E0,6.1E1,3E1,8.6E1,2.39E2,3E0,1.6E1,5E0,1E1,1E0,2E0],"tree_param":{"num_deleted":"0","num_feature":"4","num_nodes":"113","size_leaf_vector":"1"}},{"base_weights":[1.1093394E-2,4.409698E-2,-5.5468804E-1,2.402158E-2,1.2221223E0,-7.213215E-1,2.0589473E0,5.3922795E-2,-8.2927823E-1,4.5090466E0,-5.6055367E-1,-3.255839E-1,-2.1302595E0,4.7778897E0,3.063797E-1,3.3048857E-2,2.4287887E0,2.0821505E0,-1.1685969E0,6.602704E0,-3.3853835E-1,-1.3540224E0,4.3695116E0,-4.6763608E-1,5.8477774E0,-8.707911E0,-1.6398998E0,4.4665003E0,-1.3172344E0,2.3247221E-2,2.488425E0,9.606091E0,-4.278699E-1,-3.5851288E-1,5.9686947E0,-2.3255775E0,-4.1133624E-2,4.8844266E0,1.2684276E1,-1.6651157E0,8.5726523E-1,-2.619199E0,6.1144376E-1,2.3795118E0,6.458538E-1,-2.9673308E-1,-2.4406986E0,3.175087E0,-2.511981E-1,-4.7231585E-1,-3.1682873E0,-2.869876E0,-1.5703054E-2,4.952305E-1,1.7380198E0,-2.2706769E0,2.6177998E0,1.0021968E-2,-6.2157387E-1,1.7006897E0,4.820886E-2,-5.428698E-1,4.662035E0,-5.848698E-1,2.3624587E0,7.969325E-2,-6.958597E-1,1.9302689E0,4.7632316E-1,-2.9719546E-1,-8.919683E-1,-9.612362E-1,2.6786432E-1,2.1549509E0,9.4093746E-1,4.829478E0,3.6634913E-1,8.3030415E-1,-1.6776672E-1,7.5790405E-2,-1.2885408E0,3.656822E0,-4.0565577E-1,2.6970506E-1,-5.5019762E-2,-1.4610791E-1,8.127767E-1,-1.0401574E0,5.7210447E-3,6.813263E-1,-9.3045086E-1,5.6688213E-1,-5.3513944E-1,-8.708605E-1,6.0768557E-1,1.4198142E-1,1.0360285E0],"categories":[],"categories_nodes":[],"categories_segments":[],"categories_sizes":[],"default_left":[0,0,0,0,0,0,0,0,0,0,0,0,0,0,0,0,0,0,0,0,0,0,0,0,0,0,0,0,0,0,0,0,0,0,0,0,0,0,0,0,0,0,0,0,0,0,0,0,0,0,0,0,0,0,0,0,0,0,0,0,0,0,0,0,0,0,0,0,0,0,0,0,0,0,0,0,0,0,0,0,0,0,0,0,0,0,0,0,0,0,0,0,0,0,0,0,0],"id":15,"left_children":[1,3,5,7,9,11,13,15,17,19,21,23,25,-1,27,29,31,33,35,37,39,41,43,45,47,49,51,53,55,57,59,61,63,65,67,69,71,73,75,-1,77,79,81,-1,83,85,87,-1,-1,-1,-1,89,91,-1,-1,93,95,-1,-1,-1,-1,-1,-1,-1,-1,-1,-1,-1,-1,-1,-1,-1,-1,-1,-1,-1,-1,-1,-1,-1,-1,-1,-1,-1,-1,-1,-1,-1,-1,-1,-1,-1,-1,-1,-1,-1,-1],"loss_changes":[1.0027881E2,1.19967354E2,1.3039883E2,1.2736307E2,5.0058682E2,1.5486841E2,4.3258295E2,2.3895978E2,1.6938864E2,3.0671063E2,2.2498015E2,1.9478438E2,1.8247021E2,0E0,1.20708755E2,1.15005066E2,8.6524054E2,1.7288327E2,1.9818123E2,1.5749097E2,6.708161E1,1.2344792E2,1.009924E2,7.177428E1,1.6716008E2,3.6247986E1,1.1582289E2,9.117401E0,5.4717953E1,1.01451775E2,1.3975427E2,8.4101025E2,4.0701382E2,1.5303978E1,4.0604706E0,6.189691E1,2.3329442E2,4.97966E1,1.368808E2,0E0,2.5902464E1,1.4547551E2,4.7117896E2,0E0,1.21456E0,1.1515132E2,4.2990013E1,0E0,0E0,0E0,0E0,4.633966E1,9.095868E1,0E0,0E0,3.5756996E1,3.7416782E0,0E0,0E0,0E0,0E0,0E0,0E0,0E0,0E0,0E0,0E0,0E0,0E0,0E0,0E0,0E0,0E0,0E0,0E0,0E0,0E0,0E0,0E0,0E0,0E0,0E0,0E0,0E0,0E0,0E0,0E0,0E0,0E0,0E0,0E0,0E0,0E0,0E0,0E0,0E0,0E0],"parents":[2147483647,0,0,1,1,2,2,3,3,4,4,5,5,6,6,7,7,8,8,9,9,10,10,11,11,12,12,14,14,15,15,16,16,17,17,18,18,19,19,20,20,21,21,22,22,23,23,24,24,25,25,26,26,27,27,28,28,29,29,30,30,31,31,32,32,33,33,34,34,35,35,36,36,37,37,38,38,40,40,41,41,42,42,44,44,45,45,46,46,51,51,52,52,55,55,56,56],"right_children":[2,4,6,8,10,12,14,16,18,20,22,24,26,-1,28,30,32,34,36,38,40,42,44,46,48,50,52,54,56,58,60,62,64,66,68,70,72,74,76,-1,78,80,82,-1,84,86,88,-1,-1,-1,-1,90,92,-1,-1,94,96,-1,-1,-1,-1,-1,-1,-1,-1,-1,-1,-1,-1,-1,-1,-1,-1,-1,-1,-1,-1,-1,-1,-1,-1,-1,-1,-1,-1,-1,-1,-1,-1,-1,-1,-1,-1,-1,-1,-1,-1],"split_conditions":[3.0274265E1,2.9354904E1,1.5929002E1,2.7553524E1,2.2515146E2,9.239417E0,1.6018583E1,2.7288855E1,1.8733339E-1,3.0027107E1,3.8000002E0,9.026916E0,1.6427519E2,4.7778897E0,7.0000005E-1,1.92E1,1.8226044E2,-1.0043334E0,6.8665004E0,2.1655498E2,1E-1,6.9602513E0,2.9793125E1,1.02E1,2E-1,1E-1,3.1E0,3.1394394E1,3.5516605E1,2.707669E1,2.3E1,8.036055E1,3.302055E2,3.445175E2,3.2910165E2,3E-1,1.9952689E2,1.8997102E2,5.1040006E0,-1.6651157E0,1.2E0,2.2123332E0,7.2727513E0,2.3795118E0,1.1516501E1,9.1E0,3.3123333E0,3.175087E0,-2.511981E-1,-4.7231585E-1,-3.1682873E0,2.001345E2,3.335784E1,4.952305E-1,1.7380198E0,1.878942E1,1.6635248E1,1.0021968E-2,-6.2157387E-1,1.7006897E0,4.820886E-2,-5.428698E-1,4.662035E0,-5.848698E-1,2.3624587E0,7.969325E-2,-6.958597E-1,1.9302689E0,4.7632316E-1,-2.9719546E-1,-8.919683E-1,-9.612362E-1,2.6786432E-1,2.1549509E0,9.4093746E-1,4.829478E0,3.6634913E-1,8.3030415E-1,-1.6776672E-1,7.5790405E-2,-1.2885408E0,3.656822E0,-4.0565577E-1,2.6970506E-1,-5.5019762E-2,-1.4610791E-1,8.127767E-1,-1.0401574E0,5.7210447E-3,6.813263E-1,-9.3045086E-1,5.6688213E-1,-5.3513944E-1,-8.708605E-1,6.0768557E-1,1.4198142E-1,1.0360285E0],"split_indices":[2,2,0,2,3,0,0,2,0,2,1,0,3,0,1,1,3,0,0,3,1,0,2,1,1,1,1,2,2,2,1,3,3,3,3,1,3,3,0,0,1,0,0,0,0,1,0,0,0,0,0,3,2,0,0,0,0,0,0,0,0,0,0,0,0,0,0,0,0,0,0,0,0,0,0,0,0,0,0,0,0,0,0,0,0,0,0,0,0,0,0,0,0,0,0,0,0],"split_type":[0,0,0,0,0,0,0,0,0,0,0,0,0,0,0,0,0,0,0,0,0,0,0,0,0,0,0,0,0,0,0,0,0,0,0,0,0,0,0,0,0,0,0,0,0,0,0,0,0,0,0,0,0,0,0,0,0,0,0,0,0,0,